%YAML:1.0
opencv_ml_svm:
   svmType: EPS_SVR
   kernel:
      type: LINEAR
   C: 1.0000000000000000e-02
   p: 1.0000000000000001e-01
   term_criteria: { epsilon:1.0000000000000000e-03, iterations:1000 }
   var_count: 7524
   sv_total: 1
   support_vectors:
      - [ -1.79104581e-02, -1.80917289e-02, -6.82115555e-04,
          4.39624935e-02, 3.36646885e-02, 1.35516990e-02,
          -8.30769166e-03, 3.08428775e-03, 4.25238395e-05,
          8.48267321e-03, 1.66512858e-02, 2.72795055e-02, 3.27924825e-02,
          -1.69750843e-02, -1.46837272e-02, -3.12468447e-02,
          -2.20789062e-03, 7.18748802e-03, -1.69945974e-02,
          -3.19265798e-02, -1.86720677e-02, 4.36673453e-03,
          -2.56894389e-04, 2.17599049e-02, 8.09082203e-03,
          2.23231781e-03, 4.88822535e-03, 1.81592777e-02, 3.42501253e-02,
          1.61921903e-02, 1.64949540e-02, -2.42823586e-02,
          3.16532366e-02, 1.42564392e-02, 1.97160617e-02, 1.67864244e-02,
          2.07770150e-02, 1.53678972e-02, 7.28040840e-03, 8.61291867e-03,
          2.33649742e-02, 7.86947180e-03, -3.39207090e-02,
          -1.93960778e-02, 2.49112975e-02, 3.34569067e-02,
          -1.12458840e-02, -4.67729010e-03, 9.04855784e-03,
          3.69822346e-02, 1.45037416e-02, -6.93199458e-03,
          -1.43617177e-02, 2.28789747e-02, -1.18298107e-03,
          1.31734833e-02, 2.71661603e-03, -9.56569449e-04,
          -1.03908265e-02, 1.74679086e-02, -7.58563448e-03,
          -9.56538040e-03, 5.07045444e-03, 8.24082061e-04,
          -1.60183515e-02, -3.65975848e-03, -3.08572967e-03,
          1.00584636e-02, 1.28775369e-02, 6.55975565e-03,
          -1.06202550e-02, -3.90587212e-03, 1.32655073e-02,
          -1.56170921e-02, -2.01004953e-03, 5.86129678e-03,
          2.79090162e-02, 1.61383126e-03, -6.79226080e-03,
          -2.26146821e-02, 3.09677038e-04, 1.21451030e-02,
          9.05963406e-03, -6.01330912e-03, 8.65851436e-03,
          7.16930348e-03, 1.21589014e-02, -6.11454621e-03,
          7.92801729e-04, 8.11924506e-03, 9.46929492e-03,
          -1.38786780e-02, -1.81322675e-02, -6.55271579e-03,
          3.76194119e-02, 1.37768397e-02, 1.76337280e-03,
          -1.11262496e-04, -3.41227744e-03, 5.96523145e-03,
          1.40031613e-02, -1.78791843e-02, 2.40717642e-02,
          -9.51916073e-03, 2.27300171e-02, -2.19747275e-02,
          2.26074224e-03, 1.31366495e-03, -8.21581203e-03,
          4.54833702e-04, -2.76813451e-02, 1.83268823e-03,
          -9.55078937e-03, 4.59554233e-03, -1.25832185e-02,
          -1.58247701e-03, -5.51012764e-03, 3.51592079e-02,
          2.40528602e-02, -7.80524360e-03, 8.77600629e-03,
          2.19872985e-02, 3.90863903e-02, 1.01760663e-02, 1.55725842e-02,
          5.45928767e-03, -1.96183939e-03, -6.88304147e-03,
          -3.77311707e-02, 1.63796898e-02, -1.11072254e-03,
          4.82780347e-03, -2.87466384e-02, -2.00421251e-02,
          -1.85674690e-02, 2.15186495e-02, -1.07909413e-03,
          -2.87860092e-02, -1.39732212e-02, -4.11005244e-02,
          1.97771564e-02, -2.30390206e-02, -3.90613987e-03,
          -2.80033182e-02, 1.02284336e-02, -1.67707000e-02,
          1.13856071e-03, -2.38373599e-04, 2.69791335e-02,
          3.17250043e-02, 1.59275346e-02, 3.89613188e-03,
          -2.44581793e-02, 6.95313234e-03, -1.21255042e-02,
          8.65047146e-03, 8.22301582e-03, 1.41644599e-02, 2.16914192e-02,
          -3.91006423e-03, -1.48843974e-02, -4.36491752e-03,
          1.29778134e-02, 3.69005650e-03, -7.34074879e-03,
          -5.13922249e-04, -3.80187966e-02, 1.77299436e-02,
          -3.26762395e-03, -6.54399488e-03, -1.26747973e-02,
          -7.80657493e-03, -1.23456074e-02, -5.30259393e-04,
          -3.12608317e-04, -1.96953900e-02, 2.38871551e-04,
          -2.33261138e-02, -1.72417946e-02, -8.96247476e-03,
          8.64325650e-03, -1.97271747e-03, 6.19847653e-03,
          2.06087958e-02, 2.19793115e-02, 1.80166680e-02,
          -1.19971493e-02, -1.95568968e-02, 1.59706343e-02,
          1.24857584e-02, 1.08727664e-02, -1.62863880e-02,
          -8.66619498e-03, -1.51709877e-02, 1.14785116e-02,
          5.28103812e-03, 6.80399686e-03, -6.03570789e-03,
          8.19232955e-05, -1.55127179e-02, -2.42942125e-02,
          -3.04360967e-03, -2.03291923e-02, 4.43908013e-03,
          -1.53238168e-02, 1.21032784e-03, -1.16783148e-02,
          -3.16818133e-02, -2.75779478e-02, -3.66783850e-02,
          3.50690749e-03, -4.34040688e-02, -1.34262573e-02,
          -1.79244298e-02, 1.77236293e-02, -2.73605790e-02,
          1.65656656e-02, 3.40028778e-02, 1.34077575e-02,
          -1.08278468e-02, 1.96532253e-02, 3.31210531e-02,
          3.69711011e-03, 1.17008528e-02, 6.46075094e-03, 9.58656054e-03,
          1.36181079e-02, -2.08842102e-02, 1.12956157e-02,
          1.63544435e-02, 8.01626872e-03, -3.40992920e-02,
          -3.11404038e-02, -2.65067182e-02, -4.97624418e-03,
          2.75616758e-02, -9.64673702e-03, 1.02979066e-02,
          5.43554267e-03, 7.07977079e-03, -1.58115048e-02,
          1.68831740e-02, -6.07686117e-03, -1.18593825e-02,
          -1.21739041e-02, -3.24888229e-02, -8.27163644e-03,
          -3.99594568e-02, -2.11202372e-02, -3.18264030e-02,
          -2.42613349e-02, -2.70463023e-02, 1.43585671e-02,
          1.82102006e-02, 4.85542789e-03, 3.94667499e-02, 4.26576287e-02,
          2.78446765e-04, -8.19660164e-03, -7.49805337e-03,
          4.40797629e-03, -3.49647994e-03, 2.19171010e-02,
          2.87450501e-04, -1.17497360e-02, -1.42549155e-02,
          -5.24889678e-02, -1.12659307e-02, 1.24657713e-02,
          1.91329867e-02, -7.80267688e-03, 1.50948633e-02,
          -8.39364808e-03, 1.80897862e-02, -7.54726911e-03,
          4.69757663e-03, 1.12499548e-02, 1.69656798e-02,
          -4.49360861e-03, -3.30343358e-02, 7.65254395e-03,
          -2.20546369e-02, -4.56586443e-02, -2.28033829e-02,
          -2.87758186e-02, -1.05420290e-03, 1.66297778e-02,
          -2.66392175e-02, -5.65597462e-03, 1.52345300e-02,
          5.76361082e-03, 7.63606699e-03, 2.75283698e-02,
          -3.83663108e-03, 6.85508782e-03, 4.40391414e-02,
          8.52403231e-03, -1.91456638e-02, 4.91568958e-03,
          -1.18012894e-02, -4.65060305e-03, -5.71052637e-03,
          -2.58210599e-02, -2.21032966e-02, 3.99706475e-02,
          -4.53714660e-04, -5.30428486e-03, 4.15502526e-02,
          3.59041356e-02, 4.83578024e-03, 5.13018994e-03, 4.90749814e-03,
          2.11232919e-02, 2.70587802e-02, 4.14438022e-04,
          -7.36151543e-03, 2.66875755e-02, -7.74264894e-03,
          -5.64000802e-04, -2.55128462e-02, -2.20258087e-02,
          -8.62876326e-03, 1.86401755e-02, 3.43818567e-03,
          -2.25312226e-02, -2.13211458e-02, -1.72908586e-02,
          1.32894656e-02, 4.86625964e-03, -2.01864596e-02,
          -2.54691150e-02, -5.18934382e-03, 8.32033996e-03,
          -2.19620354e-02, -1.83856711e-02, -3.19373496e-02,
          -8.11811723e-03, -3.00538857e-02, -1.90316269e-03,
          -3.18240523e-02, -2.11308319e-02, -2.83656009e-02,
          8.76833685e-03, -1.72789097e-02, -1.19245397e-02,
          2.12984607e-02, 9.81251244e-03, 1.41106220e-02, 3.95512441e-03,
          2.20710710e-02, 2.00004801e-02, 1.32924896e-02,
          -2.83446116e-03, -2.37312773e-03, 2.10004002e-02,
          -1.76386368e-02, 1.88728087e-02, -3.59578896e-03,
          -6.16166275e-03, -6.55581709e-03, -4.68925573e-03,
          -4.27707145e-03, -2.49208435e-02, -1.28135933e-02,
          -1.52967600e-02, 2.62976368e-03, -2.08398476e-02,
          -1.36482632e-02, -1.07305683e-02, -7.46495510e-03,
          -1.23868138e-02, -1.56056741e-02, 4.45429841e-03,
          -2.77624875e-02, -1.39296511e-02, -8.71472340e-03,
          -2.23957794e-03, -1.78958122e-02, 1.43998219e-02,
          5.72956074e-03, 1.24198515e-02, 1.82197895e-02,
          -7.29135284e-03, 2.59251967e-02, 7.69581692e-03,
          -3.43172881e-03, -7.58799072e-03, -1.41270421e-02,
          -7.94125837e-04, 1.20957419e-02, 1.86320245e-02,
          -2.27655284e-02, -9.93090725e-05, -8.19818769e-03,
          -1.86702237e-02, -1.78984087e-02, -2.27660518e-02,
          -1.92549322e-02, -1.51721248e-03, 1.98200475e-02,
          -2.64153462e-02, -5.74522605e-03, -4.59624734e-03,
          8.60595424e-03, -6.14508754e-04, -2.80100834e-02,
          -2.75038667e-02, -2.24988237e-02, 1.06367879e-02,
          2.53105927e-02, 1.01806242e-02, -2.14875787e-02,
          -4.42359410e-03, 1.99160408e-02, -1.46480128e-02,
          -1.20396903e-02, 4.39045299e-03, 3.23960409e-02,
          -2.83947065e-02, 9.81030613e-03, 8.42048880e-03,
          2.86220270e-03, 2.93027493e-03, -1.60897616e-02,
          -3.44810784e-02, -1.85970142e-02, -3.03682173e-03,
          -1.91861913e-02, 3.15305241e-03, 1.44352410e-02,
          1.18988426e-02, 2.40823999e-02, -2.63207722e-02,
          -3.29123102e-02, -4.73878123e-02, -1.02245416e-02,
          1.65059138e-02, -3.10001103e-03, -3.52182910e-02,
          -1.77283268e-02, -5.27432072e-04, -6.06249459e-03,
          -7.02296477e-03, -2.14524530e-02, 6.46607066e-03,
          -4.58353246e-03, 1.52475480e-03, 3.87224532e-03,
          1.92886218e-03, -1.07869245e-02, -1.35448379e-02,
          -9.34999809e-03, -1.12664700e-02, 4.24887054e-04,
          -1.24368556e-02, -2.12402605e-02, -2.06021403e-04,
          -4.23217949e-04, 5.36135118e-03, 6.19066879e-03,
          1.18164280e-02, 9.70156118e-03, 1.76163018e-02,
          -1.44095430e-02, -2.20005717e-02, -2.06868965e-02,
          -4.96402336e-03, -8.48453119e-03, -1.82120074e-02,
          5.44360746e-03, 7.94257317e-03, -4.48831264e-03,
          3.16033396e-03, -6.98726811e-03, 1.24919759e-02,
          2.52015004e-03, -7.66655384e-03, -3.87803093e-02,
          -9.14304703e-03, 2.85808723e-02, 2.89443489e-02,
          1.28342062e-02, -2.43282784e-02, -4.96740406e-03,
          -6.60154410e-03, -4.02379595e-03, 2.26829294e-02,
          -1.23028429e-02, -1.39306737e-02, -1.87763348e-02,
          -7.99995102e-03, -1.61927361e-02, -1.51263466e-02,
          3.13195586e-03, -5.52146835e-03, 1.28943787e-03,
          -2.68944092e-02, -9.01728496e-03, -3.32821980e-02,
          3.40447016e-03, -3.93578261e-02, -9.02611669e-03,
          -2.51923352e-02, -2.24260730e-03, -3.48371603e-02,
          5.51791256e-03, 1.86970327e-02, 2.46127844e-02, 2.05755718e-02,
          2.29819887e-03, -2.36858614e-02, -1.50904618e-02,
          -2.36688405e-02, -6.65087923e-02, 5.30180056e-03,
          -3.88901262e-03, -1.24634672e-02, -4.53996379e-03,
          -1.29532842e-02, -1.64262298e-02, -1.21664694e-02,
          -3.86130251e-02, -9.39685106e-03, 3.33717186e-03,
          2.76336074e-02, 1.08362492e-02, 8.89000203e-03, 5.39059564e-03,
          -5.00807026e-03, -2.25814469e-02, -2.32750387e-03,
          -4.31627817e-02, 2.49138963e-03, -1.72954891e-02,
          -7.32823135e-03, -9.42942314e-03, -4.35593305e-03,
          -2.72689713e-03, 7.28526665e-03, -7.33569032e-04,
          -4.11528461e-02, 7.10530579e-03, 9.57388338e-03,
          -5.96724703e-06, 1.39185507e-02, -1.60573665e-02,
          -7.87677802e-03, -2.36275839e-03, -1.03363870e-02,
          -1.48421079e-02, -3.15777361e-02, -4.75504203e-03,
          -5.28556947e-03, 1.46033429e-02, 1.53991874e-04,
          -1.31785199e-02, -1.54714147e-02, 8.70124064e-03,
          -2.06790529e-02, -1.28023457e-02, -5.80097875e-03,
          -6.62993174e-03, -8.98687169e-03, -1.99541431e-02,
          -1.82092693e-02, 1.48270754e-02, 8.28407425e-03,
          -7.61169614e-03, -4.17051539e-02, -1.77418217e-02,
          -5.92062762e-03, -9.34507791e-03, -7.35901156e-03,
          -9.12319683e-03, 9.86211468e-03, 2.11565383e-02,
          -4.65730112e-03, -9.33180656e-03, 1.18157882e-02,
          1.97067708e-02, 6.27053087e-04, 9.37151199e-04,
          -1.69741623e-02, -1.28910551e-02, 1.35460766e-02,
          4.67986055e-03, -1.88064668e-02, -8.74606334e-03,
          3.56953740e-02, -3.57100219e-02, -3.79198603e-03,
          1.11392867e-02, -2.34325007e-02, 6.41197013e-03,
          -6.31853240e-03, -2.80467272e-02, -9.54044145e-03,
          -4.93590487e-04, -8.67457874e-03, 3.24226008e-03,
          -4.81480407e-03, 1.19403936e-02, 2.05521323e-02,
          -2.85163452e-03, -1.25264395e-02, -1.65817700e-02,
          1.17877144e-02, -4.43303362e-02, -2.41626892e-03,
          1.50162382e-02, 1.23246023e-02, -4.12064744e-03,
          -1.30037330e-02, -3.18321995e-02, -1.53094111e-02,
          1.50647042e-02, -1.11815333e-02, 1.95131432e-02,
          2.25638170e-02, -1.90592445e-02, 5.88248658e-04,
          -2.63594203e-02, -1.56103540e-02, 6.25997502e-03,
          -1.47276651e-02, -5.76567240e-02, -1.48763526e-02,
          3.49607714e-03, -1.48304291e-02, -3.19205527e-03,
          1.94564536e-02, -5.69544546e-03, 6.26285048e-03,
          3.85467485e-02, -7.72049418e-03, 6.20357413e-03,
          1.44446446e-02, 7.82955810e-03, 7.28659052e-03,
          -1.01158135e-02, 8.13977327e-03, 2.59412341e-02,
          1.88530087e-02, -1.70300901e-02, -2.58529820e-02,
          -1.96249187e-02, -4.89384588e-03, -9.65790823e-03,
          -8.73129349e-03, -1.09056132e-02, -4.32997895e-03,
          -1.96101815e-02, -2.94610411e-02, -3.85240391e-02,
          -2.51833443e-02, -1.77814923e-02, 5.81199944e-04,
          1.06905941e-02, 6.25252398e-03, 1.89747661e-02,
          -2.05921065e-02, 4.37079044e-03, -4.04654350e-03,
          -3.74105666e-03, -5.91665227e-03, 3.33342142e-02,
          -1.11522190e-02, 1.02882693e-02, 8.35734978e-03,
          1.50988596e-02, -4.71063377e-03, -1.98984314e-02,
          -3.23096626e-02, -1.26609160e-02, -4.81938664e-03,
          -1.24706849e-02, 9.62480158e-03, 1.88599732e-02,
          -2.61065230e-04, 2.54877824e-02, 1.83775388e-02,
          -2.83736158e-02, -1.82792749e-02, -1.25567312e-04,
          6.60565076e-03, -1.79476030e-02, 1.62696131e-04,
          -1.35842257e-03, 7.35579245e-03, 6.36831531e-03,
          -2.70615122e-03, -2.52782978e-04, 3.91633213e-02,
          1.43149169e-02, 7.70545937e-03, -5.52288070e-03,
          1.38481008e-02, 2.21459065e-02, 3.13909873e-02, 2.48948000e-02,
          3.83735076e-02, 3.80313806e-02, 4.48036492e-02, 4.87000914e-03,
          -6.47870731e-03, -3.98679374e-04, -4.15558480e-02,
          -8.50546453e-03, -2.08090823e-02, -3.09190317e-03,
          4.05317470e-02, -5.90821030e-03, -1.31967999e-02,
          -2.90024709e-02, 3.04760272e-03, -1.10856863e-02,
          2.99620572e-02, 8.03834945e-03, 2.04642322e-02, 1.06377928e-02,
          -1.25624742e-02, -1.20363487e-02, -1.54277645e-02,
          -7.84846395e-03, 1.69878770e-02, 2.03535706e-02,
          -3.39241023e-03, 5.20306360e-03, 5.96396718e-03,
          -4.00522025e-03, -3.70910615e-02, -1.00512954e-03,
          -1.93689819e-02, 3.57566848e-02, 3.33428308e-02,
          1.11544272e-02, -9.42030529e-05, 1.13949822e-02,
          -1.99943371e-02, -1.94771141e-02, -2.62766816e-02,
          5.17231552e-03, 1.61447679e-03, 3.68452407e-02, 3.99045600e-03,
          -3.38236499e-03, -7.20199058e-03, -3.73560959e-03,
          2.84135365e-03, -3.77676543e-03, -1.07244533e-02,
          -4.68437187e-03, 9.00422037e-03, -1.31110363e-02,
          2.10127234e-03, 2.56566592e-02, -1.09129396e-05,
          -1.62374228e-02, -8.91548581e-03, -1.17112407e-02,
          2.83977874e-02, 1.57818217e-02, -9.24960338e-03,
          7.94218620e-04, 1.09600937e-02, 1.76363233e-02, 2.42841174e-03,
          -1.59464162e-02, 2.57149786e-02, 5.98913897e-03,
          -7.73342466e-03, -1.79127082e-02, 1.14855822e-02,
          2.82763466e-02, -8.38971697e-03, -1.32897156e-04,
          -1.19601870e-02, -9.68268607e-03, -2.81038936e-02,
          -5.43010142e-03, -6.00368716e-03, 4.66271210e-03,
          3.71497194e-03, 4.67795506e-03, 1.48990052e-02, 3.73345916e-03,
          -3.93053936e-03, -8.99986457e-03, 4.79554385e-03,
          -1.04408460e-02, 2.60469653e-02, 6.85098208e-03,
          -1.19900918e-02, -1.80014465e-02, -3.88409086e-02,
          1.15711158e-02, 2.39142366e-02, 5.74032369e-04,
          -1.82303712e-02, 1.13936802e-02, 8.27349164e-03,
          1.29989851e-02, 6.24352507e-03, -1.79880168e-02,
          1.45681258e-02, -7.19604362e-03, -6.52554119e-03,
          -4.54688771e-03, 2.61293631e-02, -2.70851352e-03,
          5.76567836e-04, -1.05153378e-02, 2.18659989e-04,
          1.92039099e-03, 3.64557561e-03, 2.33908370e-02,
          -1.76835954e-02, 1.90070998e-02, 1.99281843e-03,
          -6.95412746e-03, -2.25659348e-02, -3.57607822e-03,
          2.73448601e-02, 1.17360065e-02, 1.31626241e-02, 5.84619725e-03,
          2.85634883e-02, -2.31279489e-02, 1.66179407e-02,
          1.03847515e-02, 8.14845785e-03, 1.67504754e-02,
          -8.73592589e-03, -6.33375067e-03, -1.74075011e-02,
          -3.33654205e-03, 3.07960389e-03, 9.20030382e-03,
          8.49450845e-03, 1.43278493e-02, 6.17846614e-03,
          -1.23890219e-02, 5.36112953e-03, -1.65152177e-02,
          3.85393668e-03, 1.27853556e-02, 1.67020056e-02, 4.22981661e-03,
          -5.51529042e-03, 1.18468171e-02, -8.56420584e-03,
          2.11385507e-02, 1.13539370e-02, 2.01488137e-02, 1.06623918e-02,
          -3.92515212e-03, 7.54019292e-03, -2.25024205e-03,
          -1.85558312e-02, -4.15219441e-02, 5.54714294e-04,
          3.73581657e-03, 6.19789585e-03, 1.18366452e-02,
          -1.07422005e-02, -2.33657355e-03, -1.08542871e-02,
          -6.73251506e-03, -9.11310595e-03, 8.69541243e-03,
          -7.67732679e-04, 2.60112435e-02, 1.01923887e-02,
          -2.99440995e-02, -1.39118126e-02, -2.34192573e-02,
          5.05224394e-04, -2.78971675e-05, -1.14487866e-02,
          -1.85842477e-02, 1.89237501e-02, -1.51390815e-02,
          -6.29608100e-03, 1.81937069e-02, 1.55080715e-02,
          -6.09461218e-03, -1.91963352e-02, -9.83080734e-03,
          5.58194658e-03, 1.71056632e-02, 2.57704798e-02,
          -3.86034250e-02, -9.73562885e-04, 2.93773180e-03,
          -1.77269112e-02, -5.41678257e-03, -3.39463465e-02,
          4.68922406e-03, 1.27371941e-02, -3.77607532e-02,
          -2.97675165e-03, 1.80032719e-02, 6.64145313e-03,
          3.89388530e-03, 1.85427703e-02, -1.18178502e-02,
          -1.86601952e-02, 3.38424481e-02, 5.63494861e-03,
          -1.68255065e-02, -2.23150048e-02, -2.29945928e-02,
          -8.52691103e-03, 6.81109494e-04, -9.36349621e-04,
          3.91951669e-03, 1.11910170e-02, -1.09427585e-03,
          -1.37009686e-02, 2.38503776e-02, 2.13038679e-02,
          1.48422718e-02, 2.18208320e-03, -2.92843170e-02,
          6.13699341e-03, 1.81678236e-02, -2.52393167e-02,
          -2.55078897e-02, -5.71384327e-03, -1.15265157e-02,
          -1.82097312e-02, -1.99533310e-02, -3.10734715e-02,
          -1.97046269e-02, -2.91324686e-03, -6.86322851e-03,
          -3.09194028e-02, -1.73567049e-02, -9.67347715e-03,
          7.18903728e-03, 1.13358377e-02, 2.86859106e-02, 1.33753587e-02,
          1.23928357e-02, 1.96538977e-02, -1.43756140e-02,
          8.83225072e-03, -4.26496239e-03, -1.42327081e-02,
          2.43577058e-04, -4.01894236e-03, 4.69426345e-03,
          8.53901822e-03, 4.70760133e-04, -2.55171955e-02,
          -1.01034725e-02, -1.07863592e-03, -1.19048115e-02,
          -7.82355946e-03, 5.23658236e-03, 1.05278455e-02,
          1.84811801e-02, 5.59417251e-03, -3.08717117e-02,
          -5.84163563e-03, -1.83618031e-02, -1.14945564e-02,
          1.34520410e-02, -4.30655479e-03, -2.77174613e-03,
          3.31096873e-02, -1.16502279e-02, 1.01458421e-03,
          5.19924574e-02, 1.35096582e-02, 3.25354910e-03, 1.21273138e-02,
          7.02784630e-03, 1.47468625e-02, 6.29229657e-03,
          -4.54018591e-03, 1.19547462e-02, 1.41373901e-02,
          -1.21084414e-02, -1.54455788e-02, -1.26998890e-02,
          -1.75848522e-03, -1.78395145e-04, 1.67117231e-02,
          2.09991429e-02, 1.00888936e-02, 3.24808359e-02, 1.73874118e-03,
          2.19460484e-02, 1.23761669e-02, -5.93368476e-03,
          -1.22285085e-02, 5.58116054e-03, 2.62746983e-03,
          2.96963379e-03, -1.03637704e-03, 5.26776165e-03,
          -4.05687746e-03, -3.79170515e-02, -1.10934228e-02,
          -1.50196347e-02, 1.11042708e-02, 6.58595935e-03,
          -6.94948062e-03, -2.42923629e-02, -2.27950551e-02,
          9.79876518e-03, 1.63181033e-02, 1.58508550e-02, 8.10982473e-03,
          1.20526692e-02, 1.25350356e-02, -5.27572585e-03,
          -1.72654483e-02, -7.98356626e-03, 2.97990218e-02,
          6.82500470e-03, 1.35755334e-02, 1.97277078e-03, 3.56663158e-03,
          9.76260938e-03, 7.78850308e-03, -5.50587848e-03,
          -2.39704829e-03, 3.43164150e-03, -9.49937291e-03,
          1.66344736e-02, 1.68174952e-02, 2.35351436e-02, 1.65869966e-02,
          -2.36767437e-03, -8.89466703e-03, 3.79593484e-03,
          -7.97335617e-03, 1.54096810e-02, 7.15024862e-03,
          8.75541568e-03, -1.36578921e-02, -4.81824065e-03,
          -2.71948837e-02, -2.67466493e-02, 1.82211120e-02,
          1.84286404e-02, 2.12908052e-02, 1.86435413e-02,
          -5.33615332e-03, -4.06508800e-03, -2.07456504e-03,
          -2.12697461e-02, -1.53157991e-04, 8.89755320e-03,
          9.76775959e-03, -5.24739781e-03, 5.64237125e-03,
          -5.74210053e-03, -2.23717056e-02, -1.91260676e-03,
          -1.15942024e-02, -2.75620306e-03, 2.44893469e-02,
          2.13381127e-02, 3.30426134e-02, 6.20848825e-03,
          -5.86424430e-04, -1.99156683e-02, 1.06848329e-02,
          1.18945492e-02, 9.05126892e-03, -2.07125652e-03,
          5.60215907e-03, -1.11646401e-02, 6.74690586e-03,
          -2.84386855e-02, -9.05086007e-03, 8.07945896e-03,
          9.50488541e-03, -7.21619884e-03, -1.12640746e-02,
          1.49481641e-02, -8.85475799e-03, -1.71714905e-03,
          1.73024877e-04, 6.12461520e-03, 1.54776368e-02,
          -2.13466883e-02, -4.14657444e-02, -3.28031108e-02,
          -2.52560675e-02, -2.88177319e-02, -9.88928415e-03,
          5.35077276e-03, 1.88161507e-02, -5.36324177e-03,
          3.19098048e-02, 6.58757694e-04, -3.69491912e-02,
          -6.65526884e-03, -3.50649585e-03, 2.68537994e-03,
          -2.27047484e-02, 2.54851504e-04, 9.30830278e-03,
          3.46690160e-03, -2.10339706e-02, -2.88873855e-02,
          -1.09224059e-02, 2.89831031e-02, 1.22766532e-02,
          -1.34277670e-02, -1.21295536e-02, -5.21430932e-03,
          -2.14286949e-02, -9.01577994e-03, 7.59530813e-03,
          2.23183935e-03, -2.82597281e-02, -3.38739790e-02,
          -9.92346276e-03, 1.92570705e-02, 7.56447902e-03,
          -2.29837000e-02, 2.23174458e-03, 1.96337849e-02,
          3.21111344e-02, -2.23570932e-02, -3.02110240e-02,
          -3.53184193e-02, 3.64203681e-03, -1.16201127e-02,
          3.43078002e-03, -1.70231424e-02, -1.15514174e-02,
          9.03993100e-03, 3.67611577e-03, 3.78749473e-03,
          -2.62915455e-02, 2.12085666e-03, -1.13161849e-02,
          -2.23968923e-02, -1.42028807e-02, 1.58833675e-02,
          2.69623920e-02, -1.71789806e-02, -4.77129623e-04,
          -2.90445574e-02, 2.70947926e-02, -8.18041153e-03,
          2.12604320e-03, -1.65385325e-02, -3.68509605e-03,
          -8.58213753e-03, -1.31937088e-02, -1.21046212e-02,
          -1.57134943e-02, 1.09172445e-02, -2.37776549e-03,
          -9.46967304e-03, -3.18731293e-02, -7.09792459e-03,
          5.10878349e-03, 4.44299914e-03, -2.80650612e-02,
          -9.68694035e-03, -2.41078995e-02, -2.55329031e-02,
          -1.22873457e-02, -9.24280006e-03, 1.22318584e-02,
          1.19547443e-02, 4.62822709e-03, -9.90751572e-03,
          -1.84045546e-03, 3.33702564e-02, 2.88759777e-03,
          -1.13589410e-02, -2.88887974e-02, -5.93295926e-03,
          -4.26911283e-03, 4.81757522e-03, -2.54584048e-02,
          8.80724110e-04, 7.82298762e-03, -4.95759305e-03,
          7.39932247e-03, 5.12407534e-03, 1.67461429e-02, 1.06229698e-02,
          1.66188681e-03, 8.57024267e-03, 4.59247082e-03,
          -2.45879572e-02, 6.00462547e-03, -1.22650927e-02,
          3.11421650e-03, -1.20852320e-02, -2.31026132e-02,
          -2.53192186e-02, -4.82205302e-03, -2.18112589e-04,
          2.97543686e-03, -5.25922701e-03, -1.82108383e-03,
          -9.11522936e-03, -1.14215184e-02, 4.10308968e-03,
          -9.25546791e-03, 1.00395584e-03, -7.53543526e-03,
          -5.96428243e-03, 1.04226489e-02, 2.11464311e-03,
          -7.71685131e-03, -1.58577729e-02, -1.46172820e-02,
          -1.49669766e-03, 5.49861370e-03, 7.39614386e-03,
          1.54574960e-02, -1.05757965e-02, 5.13515715e-03,
          1.12628308e-03, -1.52115691e-02, 2.96977698e-03,
          -9.48311295e-03, -9.37459245e-03, -1.05058830e-02,
          2.38958490e-03, 1.72341652e-02, 1.31044518e-02,
          -4.68240567e-02, -2.25220695e-02, -3.23757576e-03,
          5.51281404e-03, -4.32941830e-03, -5.66801615e-03,
          2.04276829e-03, 1.50849354e-02, 9.02946945e-03, 2.43278546e-03,
          -2.11968808e-03, 1.85468867e-02, -8.12266301e-03,
          -1.15729384e-02, -1.34307975e-02, 4.85036708e-03,
          -1.24340635e-02, 1.29647842e-02, -1.66821703e-02,
          -1.41540049e-02, -2.55554798e-03, -1.06371343e-02,
          -5.10153221e-03, -1.13159372e-02, -7.07379356e-03,
          -2.01484631e-03, 1.07871287e-03, -2.78845690e-02,
          -1.00698834e-02, -8.58874060e-03, 7.73695996e-03,
          -1.99124636e-03, -1.81679316e-02, 7.64878746e-03,
          1.58499423e-02, -2.48873457e-02, 1.76198408e-03,
          5.34352893e-03, -4.60752239e-03, -2.92293467e-02,
          -1.33470241e-02, -1.64618213e-02, 1.15686664e-02,
          -1.57326590e-02, 7.24461675e-03, -4.22983803e-03,
          -1.13055212e-02, 1.31580252e-02, 6.80082571e-03,
          -9.04866494e-03, -1.92127563e-02, -1.19945630e-02,
          -5.34364535e-03, -1.70431938e-02, -4.06512991e-03,
          8.45208857e-03, 2.16792133e-02, -7.60256604e-04,
          -3.72066274e-02, -2.03639604e-02, 1.77791284e-03,
          -1.87856369e-02, 1.64042541e-03, 7.20138662e-03,
          2.17799023e-02, 2.90839039e-02, -1.06357187e-02,
          -1.25385039e-02, -4.34137462e-03, 1.30331879e-02,
          7.70233292e-03, -2.23402143e-03, -6.66843203e-04,
          1.99982841e-02, 2.17994004e-02, -2.64975661e-03,
          -1.16677126e-02, -1.83860455e-02, -4.35417797e-03,
          3.21502885e-04, -7.13367201e-03, -1.14798630e-02,
          9.45551600e-03, 1.58565547e-02, -2.41375063e-02,
          -1.11090047e-02, 2.09583831e-03, 2.83953976e-02,
          4.59028146e-04, -1.65453386e-02, -1.65011380e-02,
          -8.72061355e-05, -1.90029619e-03, -2.83904909e-03,
          2.91257631e-02, 2.14186925e-02, 1.96262412e-02,
          -1.17487386e-02, 6.68649562e-03, -5.11373347e-03,
          -6.49945228e-04, -4.26931912e-03, 2.47099786e-03,
          2.44708825e-03, -8.85049626e-03, 1.24159211e-03,
          9.45858192e-03, -9.47740860e-03, -7.66084949e-03,
          1.55494292e-03, -3.08799017e-02, 7.94524048e-03,
          1.27952425e-02, -2.19697710e-02, -1.89000126e-02,
          4.86157229e-03, 1.69451553e-02, -1.53033333e-02,
          -1.26465494e-02, -1.93996560e-02, 1.11751221e-02,
          2.18827371e-02, 1.45354113e-02, 1.84363611e-02, 7.56493770e-03,
          4.17142920e-02, -1.79673377e-02, -3.59840062e-03,
          -3.09522171e-02, 3.42375487e-02, -1.53890932e-02,
          -1.10268416e-02, -1.22138467e-02, 2.04266310e-02,
          1.78194102e-02, 6.22879388e-03, 1.03040424e-03, 8.20388552e-03,
          1.15073798e-02, 6.26960723e-03, -4.11545159e-03,
          4.98500466e-03, 1.94029827e-02, 7.79836485e-03, 3.51630105e-03,
          -1.30346427e-02, 4.45039663e-03, 2.26803813e-02,
          2.75665615e-02, 2.49305628e-02, 2.88548786e-02, 2.78716367e-02,
          1.40050640e-02, -2.47822460e-02, -3.03960778e-02,
          1.75902639e-02, -9.91196278e-03, -1.66504551e-02,
          -8.00602790e-03, -2.80202221e-04, 2.47424096e-02,
          -1.51023930e-02, -1.23944255e-02, -2.53082924e-02,
          1.30620589e-02, -2.42336802e-02, -2.26321649e-02,
          2.04351963e-03, 4.84567089e-03, 7.32319988e-03,
          -2.85340305e-02, -1.32838655e-02, -4.97400714e-03,
          1.13946432e-02, 1.91629194e-02, 1.80298761e-02, 1.08561572e-02,
          4.83692158e-03, -5.17916679e-03, -1.69734247e-02,
          7.46232364e-03, -5.47505822e-03, 1.54298916e-02,
          1.01643819e-02, -5.27637359e-03, -2.36128550e-03,
          4.78035491e-03, 1.15169669e-02, -2.31422018e-02,
          2.86905677e-03, -6.14617718e-03, 3.38839553e-02,
          -3.14536355e-02, -1.45338401e-02, -1.01812128e-02,
          -9.99866240e-03, -1.21038239e-02, 1.02568325e-02,
          -1.41248165e-04, 1.77936852e-02, 3.90701033e-02,
          -5.57037955e-03, -2.54111160e-02, -9.92122572e-03,
          1.32186431e-02, 8.16895440e-03, -5.87951578e-03,
          -7.71325780e-04, -7.23780226e-03, 3.23472172e-03,
          -5.15765918e-04, -2.24582870e-02, -2.16473415e-02,
          -6.98307948e-03, 3.80734098e-03, 8.29595514e-03,
          -9.16589517e-03, 1.66709512e-03, -1.25309285e-02,
          9.49619617e-03, 1.33017171e-02, -9.56691336e-03,
          -1.07300775e-02, 7.33838300e-04, 2.71172244e-02,
          1.18823778e-02, 1.50184194e-02, 1.36683164e-02,
          -5.79268578e-03, -1.48109281e-02, -1.13202473e-02,
          -3.70893674e-03, -3.06582288e-03, -1.93621253e-03,
          -9.33401193e-03, -1.73160603e-04, 1.54353548e-02,
          -1.16458461e-02, 3.44650121e-03, -1.14663225e-02,
          -5.83019201e-03, -1.42105180e-03, -9.51422099e-03,
          -7.76122184e-03, 3.52911698e-03, 2.29996070e-03,
          1.73320230e-02, 3.43816378e-03, -2.49702949e-02,
          -1.27210040e-02, -1.83994271e-04, 1.04543790e-02,
          3.18427733e-03, 1.00201247e-02, 3.79357710e-02, 2.17030831e-02,
          1.07406685e-02, -4.79878159e-03, 8.24978016e-03,
          -1.01654371e-03, -6.00436889e-03, -6.83040032e-03,
          -6.22076122e-03, 2.55066045e-02, -1.62004977e-02,
          -8.76893010e-03, -1.36636356e-02, -2.44398154e-02,
          2.60450039e-03, 4.55020368e-03, -3.10415332e-03,
          -2.65297219e-02, 2.81032380e-02, 3.73259443e-03,
          -6.19252957e-03, 1.65448450e-02, 4.25190286e-04,
          4.61399177e-05, 2.33883653e-02, 7.12885847e-03, 1.17379695e-03,
          1.76641699e-02, 3.55507284e-02, 1.83430426e-02, 1.91184767e-02,
          2.20123660e-02, -1.10814562e-02, -1.58568639e-02,
          -4.60571377e-04, 9.72390175e-04, -1.15094632e-02,
          8.13763309e-03, -6.40418474e-03, 7.54442113e-03,
          2.84471903e-02, -6.24648854e-03, -1.32823540e-02,
          3.83903785e-03, -2.74558514e-02, 1.80646647e-02,
          1.29941739e-02, -1.16899107e-02, 4.16458963e-04,
          1.34491222e-02, -1.76872723e-02, -2.47623511e-02,
          6.10629702e-03, -1.59683507e-02, -1.18159857e-02,
          9.89888050e-03, -1.98648907e-02, 2.98786582e-03,
          1.46925682e-02, -2.02720650e-02, -1.15230614e-02,
          2.47728992e-02, 2.36729886e-02, -9.86133609e-03,
          6.31301082e-04, -1.55033749e-02, -1.22972131e-02,
          4.02800320e-03, 9.23732668e-03, -3.93345580e-02,
          4.25938377e-03, 1.20602017e-02, -3.52047500e-03,
          1.96189135e-02, -2.89639793e-02, -6.79250155e-03,
          -4.97948902e-04, -3.96889895e-02, -3.80159845e-03,
          -1.65863486e-03, -2.75547057e-03, -2.16744002e-02,
          -5.18947700e-03, -2.01860406e-02, -7.96576310e-03,
          2.86764242e-02, -1.64252315e-02, -1.01414165e-02,
          -1.95914302e-02, -3.13222818e-02, -3.82717513e-02,
          -2.62169801e-02, -1.99045464e-02, -4.19718027e-03,
          3.18072774e-02, -7.75675569e-03, -4.12903959e-03,
          3.04936618e-02, 1.47724906e-02, 1.53992949e-02, 2.60706339e-02,
          -2.61060353e-02, -1.52969826e-02, 6.79012667e-03,
          -2.86845323e-02, 2.89435731e-03, -3.44477524e-03,
          -7.77279120e-03, -9.65809170e-03, 1.07491212e-02,
          -1.88365858e-02, -1.01381168e-02, -1.22196535e-02,
          -2.14956775e-02, 9.74835549e-03, 2.33675055e-02,
          5.42960269e-03, -1.19118150e-02, -1.03468646e-03,
          -1.88051555e-02, 9.45805851e-03, 4.04644571e-02,
          1.12147052e-02, -8.25705659e-03, -1.23553351e-03,
          -2.26419442e-03, -1.99210527e-03, 1.90165697e-03,
          -2.95654568e-03, 1.29353181e-02, -3.72989895e-03,
          -5.15619118e-04, 5.42411767e-03, -2.20666099e-02,
          -1.66642945e-02, 5.16799570e-04, 6.60816347e-03,
          -1.27389678e-03, 1.12727182e-02, 8.65696091e-03,
          1.01980036e-02, -4.34004562e-03, -2.10918728e-02,
          -2.61776093e-02, -1.33781098e-02, -5.80126094e-03,
          -2.36709602e-02, -9.15901177e-03, 1.18667744e-02,
          -6.96021714e-04, 3.53256688e-02, 3.90233775e-03,
          -1.84974093e-02, 2.48906799e-02, 1.97565015e-02,
          7.49211479e-03, 2.36561988e-03, 3.73296416e-03, 4.90413746e-03,
          1.22920936e-02, 2.02381276e-02, -1.29067544e-02,
          4.30762710e-04, -8.31613597e-03, -1.42197097e-02,
          -1.60362218e-02, 1.17347203e-02, 9.82868113e-03,
          1.97820980e-02, 6.29001483e-03, 1.36462087e-03, 3.48531231e-02,
          1.45153701e-02, -1.87151879e-02, -1.46331312e-02,
          4.24241461e-03, 1.89530961e-02, -5.75080374e-03,
          -1.37919830e-02, 9.64453735e-04, 2.57743951e-02,
          -3.40262800e-02, -4.53913165e-03, -3.67917679e-02,
          -1.51543058e-02, -9.29664727e-03, 6.30250154e-03,
          8.13250057e-03, 1.72116850e-02, 3.06496322e-02, 2.23163981e-02,
          -5.70126984e-04, 4.49971529e-03, 2.60752030e-02,
          2.49150880e-02, -2.36628484e-02, -2.41034701e-02,
          -2.55220328e-02, -7.68116955e-03, -1.48234256e-02,
          -1.44062489e-02, -2.25368328e-02, -1.50466748e-02,
          -7.86905177e-03, -1.91351923e-03, 1.39219202e-02,
          7.42577063e-03, -4.86688735e-03, -2.45949486e-03,
          1.39344195e-02, -1.12224603e-02, 1.27458265e-02,
          -9.86459386e-03, -9.77577828e-03, 9.06321220e-03,
          -1.57971121e-02, -2.85343211e-02, -5.63423055e-05,
          1.51825109e-02, -3.74394498e-04, 2.54006917e-03,
          -2.71297712e-02, -3.48818465e-03, 2.32636668e-02,
          1.55791519e-02, 1.51442513e-02, 1.40899708e-02,
          -2.04047188e-04, -1.50748780e-02, -7.55106146e-03,
          1.35456184e-02, -3.03688403e-02, 7.19197560e-03,
          -2.54676417e-02, -3.42693105e-02, -2.64095771e-03,
          -1.87941827e-02, -2.61943927e-03, 1.13653252e-03,
          -2.01962590e-02, -1.45832747e-02, 3.04473191e-03,
          2.89272657e-03, -7.40504917e-03, 8.64150468e-03,
          7.96264596e-03, 1.29280584e-02, -3.36135738e-03,
          4.01451299e-03, -1.00459671e-02, 4.37299674e-03,
          -1.00201024e-02, -4.39734105e-03, -2.52647530e-02,
          4.36344976e-03, -8.50407314e-03, -9.19053610e-03,
          -3.20353475e-03, -1.89229324e-02, -2.77641043e-03,
          2.68547214e-03, -6.85070083e-03, 4.86822100e-03,
          -7.71404197e-03, 4.17409523e-04, -5.67597803e-03,
          -3.50577029e-04, -1.23240557e-02, -6.91909983e-04,
          1.30517287e-02, 2.00772844e-02, 1.54502835e-04,
          -1.70470821e-03, 7.38223735e-03, -2.84278393e-03,
          -3.02664441e-04, 4.95684333e-03, 2.51834490e-03,
          -3.04003917e-02, -7.61973066e-03, -2.29251627e-02,
          -8.60010833e-03, -2.48778984e-02, -1.13815423e-02,
          2.30124388e-02, 5.87371131e-03, -2.54649986e-02,
          -4.39354181e-02, -1.37720415e-02, 8.10430478e-03,
          6.93806913e-03, -9.79284290e-03, -1.70845911e-02,
          4.96254861e-03, 2.05114279e-02, 1.25319222e-02, 1.35471625e-03,
          1.68926921e-02, -2.51668468e-02, -1.18220756e-02,
          -3.84648563e-03, 2.80926805e-02, 1.88432522e-02,
          -3.87560134e-03, -1.01707466e-02, -3.07339951e-02,
          1.69658903e-02, -8.32487922e-03, -1.01719401e-03,
          -1.58526725e-03, 2.69439369e-02, -2.55337590e-03,
          -1.59998443e-02, -1.71044022e-02, -3.51803005e-02,
          -5.32497000e-03, 4.24815714e-03, 1.32728107e-02,
          -1.13344500e-02, -1.93051007e-02, -1.39817968e-02,
          -2.20919456e-02, -1.36725381e-02, -2.87884264e-04,
          5.38686989e-04, -1.47768538e-02, 1.91574078e-02,
          -2.60780957e-02, -1.00866647e-03, -2.63748970e-02,
          -1.48289651e-03, 1.49419960e-02, -7.38194678e-03,
          9.88248270e-04, -2.31465558e-03, -5.18193468e-04,
          6.07009651e-03, 1.50469067e-02, 1.28557775e-02,
          -5.08501707e-03, 1.52718490e-02, 1.67443287e-02,
          1.36409244e-02, -7.98854453e-04, -2.48824013e-03,
          3.69681837e-03, 4.82018339e-03, 9.15159751e-03,
          -1.52366553e-02, -1.71166286e-02, -1.07216835e-03,
          1.87223386e-02, 1.22505135e-03, 9.94596910e-03,
          -9.36596002e-03, 1.28424186e-02, -4.48591495e-03,
          -1.25355844e-03, -3.87557894e-02, -2.07686536e-02,
          -7.60744885e-03, -1.34661496e-02, 1.54629229e-02,
          -5.13993064e-03, 2.99556274e-03, -5.84689295e-03,
          -8.42978619e-03, -1.06110182e-02, 9.33795795e-03,
          2.33926047e-02, 1.91309880e-02, 1.98543631e-02, 3.17692161e-02,
          2.89147329e-02, 8.03383254e-03, -6.89207762e-03,
          -5.09538082e-03, 2.74833816e-04, 5.16210822e-03,
          1.48206984e-03, 2.78173238e-02, 1.70328990e-02, 1.05796540e-02,
          -7.26210047e-03, 4.07961942e-03, -8.83525237e-03,
          -3.59681575e-03, 1.11985439e-02, -9.58339078e-05,
          3.80581170e-02, -2.12347694e-02, -9.06466972e-03,
          -7.84911099e-04, -1.86676402e-02, -2.37943660e-02,
          -2.77459938e-02, -1.37465028e-02, 4.61118435e-03,
          8.29093065e-03, -1.06965713e-02, -1.66439207e-03,
          -1.52141256e-02, 2.32388359e-02, 2.97880061e-02,
          2.56057773e-02, 3.35290469e-02, 8.86707846e-03, 3.27070802e-02,
          9.91488062e-03, 2.75731403e-02, 9.82671697e-03, 5.94739057e-03,
          9.53145325e-03, 1.95563375e-03, -1.16262557e-02,
          1.23743317e-04, -1.84139498e-02, -6.00681221e-03,
          -3.17803910e-03, -9.47435573e-03, -7.13971304e-03,
          6.48449315e-03, 1.06516210e-02, 1.06965723e-02, 7.61388754e-03,
          -1.90451443e-02, -2.19498817e-02, -5.84498222e-04,
          -4.47978498e-03, 5.04067866e-03, -1.77510064e-02,
          -1.81910885e-03, -2.29309357e-04, -1.15394080e-02,
          -1.63249148e-03, -2.49510538e-02, -3.18654962e-02,
          1.31482147e-02, 3.59790074e-03, 1.60726160e-02, 1.65641177e-02,
          3.55747971e-03, -3.84963860e-05, -5.49437106e-03,
          -1.69735076e-03, -3.48418369e-04, 1.57294888e-02,
          1.72625426e-02, -1.20641356e-02, 3.50237824e-02,
          3.34578590e-03, 1.31740496e-02, 8.24722648e-03,
          -2.50836723e-02, -1.66912153e-02, 2.82175932e-02,
          1.20958621e-02, -1.34382257e-02, -2.52099577e-02,
          1.07005229e-02, -1.77123826e-02, 1.46774771e-02,
          -9.67174862e-03, -1.21863317e-02, 2.35086307e-02,
          3.37832072e-03, 3.13637516e-04, 8.96753801e-04, 1.11683086e-02,
          -2.33937223e-02, 2.42393275e-04, -3.90097615e-03,
          -2.27670907e-03, 5.74064034e-04, 1.57839991e-02,
          -1.84235815e-02, 6.73260354e-03, 1.59558165e-03,
          1.28049999e-02, 2.07714383e-02, -2.18035262e-02,
          -5.96033316e-03, 2.81822663e-02, -7.92869739e-03,
          -1.81439258e-02, 1.68894213e-02, -2.96859012e-04,
          -7.11530680e-03, 2.89632324e-02, -1.24273039e-02,
          -7.28064915e-03, -1.95832248e-03, 6.26510335e-03,
          2.15577963e-03, -6.63007703e-03, -1.23290271e-02,
          -3.24917398e-02, 1.57315354e-03, 1.18248267e-02,
          2.23754700e-02, 1.55362803e-02, -1.44057246e-02,
          -7.41975196e-03, 5.51045989e-04, -4.30855155e-03,
          -5.34458598e-03, 3.84594165e-02, 3.12392004e-02,
          1.51853058e-02, 3.87987611e-03, 1.06488727e-02,
          -6.08753320e-03, -3.09992675e-03, 2.84422631e-03,
          -8.59100465e-03, 8.49823374e-03, -7.10985670e-03,
          -3.97772994e-03, 1.07949441e-02, 1.22105447e-03,
          4.43274667e-03, -4.45109839e-03, 1.74469687e-03,
          -1.10666370e-02, 1.60060227e-02, 1.45673682e-03,
          -8.73669889e-03, 9.58113652e-03, 7.07472721e-03,
          -8.90498515e-03, -7.58773088e-03, -2.20108721e-02,
          1.68082900e-02, 4.24180180e-03, 2.14862060e-02, 5.89180039e-03,
          1.93549637e-02, 3.55837345e-02, 5.08000050e-03,
          -2.35090824e-03, -2.07636096e-02, 1.22488607e-02,
          -1.30266021e-03, -1.18050501e-02, -2.00358368e-02,
          3.32706608e-02, -1.92533876e-03, 7.28696526e-04,
          -1.50073962e-02, -6.40062429e-03, -7.46525405e-03,
          -2.94474629e-03, 1.57956630e-02, -2.26830994e-03,
          -1.26043320e-04, 2.68155821e-02, 1.58917233e-02,
          -9.67671908e-03, 3.96502623e-03, 6.00342080e-03,
          4.03526239e-03, -1.19210221e-02, -1.15539925e-02,
          1.53895756e-02, 8.58957600e-03, -1.84286870e-02,
          -8.16517882e-03, 2.82048564e-02, 1.08169699e-02,
          5.35778888e-03, -5.90101536e-03, 1.40383635e-02,
          1.23840338e-02, 2.14328850e-03, -1.38001619e-02,
          6.74089044e-03, 5.72155975e-02, 4.42894362e-02,
          -2.61514098e-03, -1.68663412e-02, 1.63216479e-04,
          1.40723716e-02, 2.93681808e-02, -1.26050096e-02,
          1.09909289e-02, 1.71319451e-02, 6.73410250e-03, 3.10478061e-02,
          -1.74670052e-02, 9.12430231e-03, 1.19903404e-02,
          1.61207914e-02, -3.38837644e-03, -4.77197533e-03,
          2.02574022e-02, -3.18934326e-03, 1.22104557e-02,
          -2.26944480e-02, 3.06024519e-03, 2.34817304e-02,
          -2.73639839e-02, -1.31267570e-02, -7.37002539e-03,
          4.20824401e-02, 3.03041786e-02, -3.41940741e-03,
          -4.28025499e-02, -2.66920887e-02, 2.51639308e-03,
          -7.95237161e-03, -5.34219528e-03, 2.45253555e-03,
          3.67056020e-02, 3.22227664e-02, 2.11897166e-03,
          -1.25834430e-02, 4.22950508e-03, 2.74789613e-02,
          -7.51150656e-04, -1.23489532e-03, -2.25740671e-02,
          1.93262547e-02, 1.33261811e-02, 1.52984420e-02,
          -5.70466556e-02, -4.20374349e-02, 1.85888279e-02,
          -8.17559566e-03, 4.08947794e-03, -1.18770609e-02,
          2.67410930e-02, 1.15628438e-02, 9.39526688e-03,
          -3.14380303e-02, -5.04854545e-02, 2.77532414e-02,
          3.17730568e-02, 8.18923488e-03, 4.76280693e-03, 5.25565119e-03,
          -1.57245575e-03, -1.16869574e-03, 9.53494851e-03,
          6.58048876e-03, 1.00699728e-02, 1.39959445e-02, 1.01457201e-02,
          1.36218080e-02, 1.91259012e-02, -1.94753744e-02,
          2.11633500e-02, -2.14118417e-03, -7.19149597e-03,
          1.14337963e-04, 9.14029870e-03, -3.08782049e-03,
          -3.10267713e-02, -1.33958198e-02, -4.45713587e-02,
          -1.29323248e-02, 4.41803131e-03, -1.83619782e-02,
          3.35711204e-02, 7.37465033e-03, -2.38061044e-03,
          -6.70995656e-03, -7.77460635e-03, -4.96563464e-02,
          1.47428215e-02, -1.40206295e-03, -2.55946582e-03,
          7.38877291e-03, 2.73505313e-04, -1.20791746e-02,
          -8.29339772e-03, 1.09098805e-02, 1.54554443e-02,
          -1.09825109e-03, -1.22470772e-02, -1.88728534e-02,
          5.97486389e-04, -3.86378053e-03, -7.82618765e-03,
          -3.73858921e-02, -2.76154769e-03, -6.92332070e-03,
          -1.56264771e-02, 2.39520073e-02, 1.28740268e-02,
          4.46220813e-03, 8.61590914e-03, 1.19181722e-03,
          -2.25738203e-03, 1.18250791e-02, 2.78891908e-04,
          6.80147437e-03, -2.66798045e-02, -3.76299582e-02,
          -1.35438628e-02, 4.09467034e-02, 1.82491764e-02,
          8.68461840e-03, -9.84616019e-03, -2.08136439e-02,
          -2.75687333e-02, 3.71206622e-03, 4.10824968e-03,
          3.58417481e-02, -2.47059520e-02, -8.07340350e-03,
          -2.73228288e-02, -8.40847287e-03, 2.27100998e-02,
          1.77039707e-04, 1.27654271e-02, -6.13919599e-03,
          -2.15307418e-02, -2.71158367e-02, -2.28143688e-02,
          -1.53797129e-02, -4.48163832e-03, 4.07471992e-02,
          6.03344385e-03, 8.89104046e-03, 5.71386190e-03,
          -1.42106628e-02, 1.25625348e-02, 1.16033265e-02,
          9.51212365e-03, -2.72452948e-03, -9.60923266e-03,
          1.26094064e-02, 9.91625711e-03, 1.99525859e-02, 7.90901296e-03,
          -1.96288209e-02, 9.73354001e-03, -8.35376047e-03,
          1.20486254e-02, -6.04495472e-05, 8.08120240e-04,
          1.13309119e-02, 3.52257341e-02, 5.27461991e-04,
          -2.74659153e-02, -2.11426392e-02, -2.02919589e-03,
          -9.51474532e-03, 3.02315690e-02, 1.13284187e-02,
          -1.76826399e-03, 6.71655592e-03, -3.25679965e-02,
          -1.40834479e-02, 9.91484802e-03, 3.65100661e-03,
          -3.91507484e-02, -6.27758820e-03, 1.38322488e-04,
          -1.47829046e-02, 3.86269833e-03, -2.18613390e-02,
          -5.27958944e-03, 3.08463741e-02, 3.13121229e-02,
          3.57865952e-02, 2.35323831e-02, -3.76797561e-03,
          1.36649627e-02, 3.23619619e-02, -7.22730812e-03,
          6.54873718e-03, 5.23520410e-02, 1.54378759e-02,
          -2.96321493e-02, -1.33576561e-02, -4.38814014e-02,
          -2.82442719e-02, 3.65842646e-03, -1.78739671e-02,
          1.76114799e-03, 3.25399153e-02, 1.17756166e-02,
          -3.33442315e-02, -1.22271758e-02, 1.55342696e-02,
          -4.62391181e-03, 7.41090020e-03, -9.33854282e-03,
          -6.14578649e-03, 3.05367969e-02, -1.68894697e-02,
          -3.56258638e-02, 1.62842905e-03, 5.86109981e-03,
          -1.10586062e-02, -4.67915973e-03, 1.74011907e-03,
          1.53322620e-02, 4.91553769e-02, 3.33823785e-02,
          -1.29461428e-02, -6.79947156e-03, 5.40425489e-03,
          -2.07828227e-02, 2.96069290e-02, 5.82386972e-03,
          1.00465911e-02, 2.10416764e-02, -2.89539248e-03,
          -1.34814018e-02, 1.19452327e-02, 1.94577919e-03,
          -9.41534247e-03, 1.45183075e-02, -1.21178767e-02,
          1.83777381e-02, 4.05355841e-02, -8.58995784e-03,
          1.95701281e-03, 3.23350988e-02, 1.13847619e-02,
          -6.04280597e-03, 1.12778107e-02, 2.81203743e-02,
          -2.20070803e-03, 2.38766596e-02, -1.17388107e-02,
          4.77223005e-03, 3.44199175e-03, 2.82359472e-03,
          -1.67993363e-02, 1.77105684e-02, 1.04254419e-02,
          2.28460673e-02, 3.58822159e-02, 1.59283876e-02, 4.20984616e-05,
          2.25435407e-03, -5.18404040e-03, 2.19578692e-03,
          2.40686089e-02, 1.41214272e-02, 3.88422683e-02, 2.36370917e-02,
          -2.74425955e-03, -2.94902008e-02, -2.12128479e-02,
          -4.05452177e-02, 3.34225269e-03, 1.91384573e-02,
          2.26012431e-02, -2.13472303e-02, 4.54812637e-03,
          -8.12038127e-03, 2.11632550e-02, 3.21862847e-02,
          1.74688883e-02, -3.71323084e-04, 2.75322497e-02,
          1.00695435e-02, -1.59594119e-02, 4.56696004e-03,
          7.46506616e-04, -4.24608309e-03, 2.59024184e-02,
          -4.93812235e-03, -1.19282138e-02, 2.03820365e-03,
          -1.49214668e-02, 3.16939875e-02, 4.67711091e-02,
          8.69561359e-03, -2.94642989e-03, 3.72016467e-02,
          -6.06323453e-03, -5.63758542e-04, 1.66707374e-02,
          2.58338880e-02, 7.67879235e-03, 3.41434442e-02, 9.15463723e-04,
          1.66564249e-03, 1.28317848e-02, -8.72407388e-03,
          -1.41172251e-02, -1.35734854e-02, -7.51617597e-03,
          1.20674102e-02, 2.92897578e-02, 1.10158892e-02,
          -4.99273883e-03, 1.99896023e-02, -1.14918705e-02,
          -1.83865111e-02, 1.50057767e-03, 9.08171944e-03,
          -2.36972477e-02, -5.23935305e-03, -2.01454312e-02,
          -1.63297430e-02, 6.39450084e-03, -2.31321696e-02,
          -1.97737254e-02, 1.44973202e-02, 6.05283771e-03,
          2.31993981e-02, 5.94293699e-02, 6.21761475e-03,
          -2.48919684e-03, -3.54820141e-03, 6.95967348e-03,
          -1.64622404e-02, -1.51190385e-02, -2.46695499e-03,
          -8.97968188e-04, 3.13091837e-02, -2.28357548e-03,
          -1.91973802e-02, -3.55706457e-03, -3.29265650e-03,
          -1.46508508e-03, -3.43516353e-03, 1.44021530e-02,
          -3.37019004e-02, -1.50958579e-02, -6.27022411e-04,
          -9.72161593e-04, 9.75763705e-03, -1.47671048e-02,
          -3.12100314e-02, 6.33870531e-03, 2.21070405e-02,
          -1.53981978e-02, -2.34658029e-02, 1.94653636e-03,
          1.66523419e-02, 1.93345249e-02, -1.51003781e-03,
          -1.87847149e-02, -2.44206525e-02, -6.92520151e-03,
          -5.98863140e-03, 9.69686173e-03, -8.27721029e-04,
          -5.51782874e-03, 8.75005219e-03, 2.20947433e-02,
          1.81694347e-02, 5.42057166e-03, 3.14928405e-03, 3.47012393e-02,
          1.09958826e-02, -6.42881170e-03, -1.09378602e-02,
          -1.78823876e-03, 1.45477895e-02, 1.45665891e-02,
          -8.75210762e-03, -3.09595512e-03, 1.38643580e-02,
          -5.17700380e-03, -2.10009404e-02, 7.29035819e-04,
          -1.21139223e-02, -2.34990511e-02, -1.61458906e-02,
          -6.36243215e-03, 9.66797415e-06, 5.92702813e-03,
          1.27476938e-02, 9.10966482e-04, 1.91423367e-03,
          -1.10753458e-02, -1.79034434e-02, -2.02807952e-02,
          1.92486157e-04, -8.13430082e-03, 3.41194011e-02,
          1.51088648e-02, -2.06589792e-02, -1.38346162e-02,
          4.78463061e-03, 3.39230918e-03, -3.15512327e-04,
          -2.35527828e-02, -9.00223665e-03, -1.68893763e-04,
          1.04166856e-02, -2.01347675e-02, 1.02770366e-02,
          -9.90117155e-03, -8.07173457e-03, -2.44745761e-02,
          -1.98132023e-02, -1.47490278e-02, -2.72771697e-02,
          2.38374397e-02, -6.17962377e-03, -7.10715121e-03,
          1.50662102e-02, -6.79431483e-03, -2.02373080e-02,
          5.30901924e-03, -1.87106524e-02, -5.22365421e-02,
          -1.68336201e-02, -6.68149348e-03, 1.23717273e-02,
          -1.11573860e-02, -3.34354024e-03, -1.34583646e-02,
          -6.68658456e-03, -1.83336660e-02, -1.04143389e-03,
          5.80926007e-03, -2.75106393e-02, 5.20308677e-04,
          1.18812080e-02, 4.78947302e-03, 1.07544858e-03, 1.10888174e-02,
          -1.92107707e-02, -2.00447831e-02, -7.76524702e-03,
          -9.66214109e-03, 1.23795103e-02, -1.05794696e-02,
          2.27632821e-02, -1.19812312e-02, 3.13792820e-03,
          -2.95394547e-02, -1.35216499e-02, -5.23006916e-03,
          5.79685031e-04, 1.65221412e-02, 1.09004024e-02, 1.00114627e-03,
          -7.20401807e-03, -9.44153697e-04, -7.01479893e-03,
          2.22455664e-03, 2.73322798e-02, 1.35857367e-03,
          -8.15328490e-03, -3.34291384e-02, -1.13065476e-02,
          1.78880175e-04, 1.59995090e-02, -2.99932901e-02,
          3.54307890e-02, 2.34524086e-02, -5.65970177e-03,
          1.20106786e-02, 1.70706976e-02, 6.66237809e-03,
          -2.77074371e-02, 9.70675983e-03, 6.44383486e-03,
          3.43625918e-02, 3.36209647e-02, 1.14523675e-02, 1.07193561e-02,
          2.99113197e-03, 1.53302634e-02, -4.62278537e-03,
          1.83495525e-02, -1.68862995e-02, -1.23327514e-02,
          2.21874639e-02, -4.08595148e-03, -1.55191096e-02,
          2.46884557e-03, -4.88824910e-03, 1.30687896e-02,
          2.71224584e-02, -5.93309477e-03, -2.30700467e-02,
          -2.32676193e-02, -1.56771559e-02, -3.34909968e-02,
          -1.06784969e-03, -1.90739296e-02, -3.23064276e-03,
          5.55991801e-03, -6.03781128e-03, 1.51010118e-02,
          3.24076898e-02, 1.22500779e-02, 5.63769788e-03, 5.50986230e-02,
          4.57905494e-02, 1.65136047e-02, 5.19930050e-02, 1.10433623e-02,
          -3.96991000e-02, -1.13820434e-02, -1.41182411e-02,
          -1.02509195e-02, 1.79521609e-02, 3.87303568e-02,
          1.20894229e-02, 4.39429432e-02, -2.14878209e-02,
          -6.06892630e-03, -1.77690629e-02, 1.17091089e-02,
          -6.13658514e-04, 8.83473083e-03, 3.49490484e-03,
          1.66428965e-02, 8.32065940e-03, -2.47748452e-03,
          2.78941239e-03, -5.22995554e-03, 1.57417916e-02,
          5.30662574e-03, -4.84363554e-04, -1.24420412e-02,
          -2.48549059e-02, -1.49924932e-02, 1.31027754e-02,
          -1.17001245e-02, -7.83886109e-03, 8.38124566e-03,
          2.91142501e-02, 1.31595703e-02, 4.43295874e-02, 2.79222168e-02,
          1.80740952e-02, -1.32803665e-02, -2.08858903e-02,
          -1.02767488e-02, 9.01944842e-03, -6.51788246e-03,
          1.90999918e-02, -8.77523981e-03, -2.01104525e-02,
          4.86182375e-03, 2.02665641e-03, 5.79983043e-03,
          -9.91060585e-03, 4.31559281e-03, 1.09432405e-02,
          -5.55625791e-03, 9.21045151e-03, -9.59759764e-03,
          1.24120088e-02, 3.81929539e-02, -1.16097303e-02,
          -3.66257951e-02, -4.25883243e-03, 5.87952230e-03,
          8.77033267e-03, 8.33323039e-03, -1.16995070e-02,
          9.95485391e-03, 1.62521247e-02, 1.21293694e-03, 1.56597549e-03,
          7.27615692e-03, -1.41069088e-02, -3.40483077e-02,
          3.81949567e-03, -8.79839528e-03, 1.89311970e-02,
          2.44681276e-02, -1.31201381e-02, -3.00605390e-02,
          -1.04172705e-02, 1.67118087e-02, -4.54475079e-03,
          -3.82456044e-03, -1.76913030e-02, -1.12726707e-02,
          -1.38613582e-02, 7.10085686e-03, -1.15727559e-02,
          2.14611227e-03, 2.25715935e-02, 7.79489102e-03, 1.93747762e-03,
          -1.44620249e-02, -1.49720330e-02, 1.67098157e-02,
          -1.86114572e-03, -3.45425680e-03, -1.18668498e-02,
          1.98179297e-02, 8.00911058e-03, 1.26209594e-02,
          -1.73770022e-02, -1.32278707e-02, 4.74962452e-03,
          1.43741965e-02, -2.07168385e-02, -1.03696464e-02,
          3.49150337e-02, 2.25292426e-02, -1.01076905e-02,
          -2.62246598e-02, -3.72230560e-02, -1.50607736e-03,
          -5.96974138e-03, -7.65555864e-03, -1.80463900e-03,
          2.67273895e-02, 8.87250062e-03, -1.67702623e-02,
          -1.30602997e-02, -3.24288607e-02, -1.69671774e-02,
          5.48005430e-03, -6.09266805e-03, -2.40737088e-02,
          1.85409270e-04, -1.21607408e-02, -2.33543199e-03,
          -5.65726496e-03, -8.38192180e-03, 8.02578777e-03,
          1.52078243e-02, 3.42768920e-03, -2.75658853e-02,
          -2.61497521e-03, -3.78973945e-03, 9.69027285e-04,
          -1.45825436e-02, -1.53755927e-02, 6.74973242e-03,
          1.01734754e-02, -4.08956455e-03, -2.01780582e-03,
          2.08617989e-02, 1.53009128e-02, -1.53716346e-02,
          -1.62622184e-02, -1.33948009e-02, 3.09560611e-03,
          5.49369752e-02, 2.73404806e-03, -1.15833916e-02,
          4.36801044e-03, 6.36965455e-03, 1.32621713e-02,
          -2.84002703e-02, -1.83173548e-02, 2.67275032e-02,
          4.92028566e-03, -8.95152707e-03, 3.37044243e-03,
          1.92319062e-02, 1.98094081e-02, 5.24148578e-03,
          -1.79639738e-02, 1.26548503e-02, 1.56017710e-02,
          -2.39795912e-02, -6.60322621e-05, 6.33711088e-03,
          1.65739574e-03, 1.66268647e-02, 7.67147774e-03,
          -3.54993506e-03, 1.39081925e-02, 5.47308475e-03,
          2.40044575e-02, -1.40727963e-02, -8.76320992e-03,
          1.39193749e-02, 1.78814307e-02, -2.18693465e-02,
          -6.26759790e-03, 1.06502250e-02, 4.09834981e-02,
          1.30644124e-02, 2.35253423e-02, 1.20549873e-02, 6.97327079e-03,
          1.79929212e-02, -1.18324794e-02, 7.90096354e-03,
          5.14648966e-02, 3.48406583e-02, -1.26210591e-02,
          8.97376891e-03, -2.90884618e-02, -8.56433995e-03,
          1.35776503e-02, 2.27526594e-02, -2.91627925e-02,
          -1.48425130e-02, 1.14383530e-02, -1.20800221e-02,
          2.26743631e-02, -6.18112320e-03, 3.25823277e-02,
          1.60805248e-02, 2.85418406e-02, -6.81295618e-03,
          -2.63155941e-02, 5.34399739e-03, -1.29713595e-03,
          4.03881446e-03, -3.40871140e-03, -1.35748070e-02,
          -7.48762721e-03, 1.22419475e-02, 5.51653153e-04,
          3.27953957e-02, 7.02062529e-03, 2.04492863e-02, 3.01373359e-02,
          -3.27659771e-03, 2.08684034e-03, -1.19614061e-02,
          -6.31635031e-03, -1.54238436e-02, 9.34014749e-03,
          3.29300798e-02, -1.66942144e-03, 3.82315647e-03,
          -1.92243140e-02, 8.24590679e-03, -1.64838526e-02,
          -1.05741490e-02, -2.35637533e-03, -5.46413474e-04,
          -5.85042426e-06, 2.10396387e-02, -2.11305451e-03,
          -1.25973951e-02, 2.49880180e-02, 5.11910730e-05,
          1.94343403e-02, -7.84510560e-03, 2.69346347e-04,
          -2.55949106e-02, 1.03110755e-02, 1.46791469e-02,
          -8.26335978e-03, 1.43358503e-02, -1.16438298e-02,
          -2.12153476e-02, -2.07718126e-02, 4.27801767e-03,
          1.11222863e-02, 1.92839019e-02, -3.56410950e-04,
          -4.96661197e-03, 2.08045878e-02, -1.65472198e-02,
          7.38786673e-03, -2.38404982e-02, -2.64132395e-02,
          -8.51655472e-03, -1.43496785e-02, -1.99812893e-02,
          -1.03949830e-02, 6.48412202e-03, 1.30278841e-02,
          -1.61727592e-02, -3.40765826e-02, -4.75185104e-02,
          -5.14738411e-02, 7.60561274e-03, 4.01924066e-02,
          3.36792432e-02, 3.54695767e-02, 9.98596102e-03,
          -2.92842556e-02, -1.34293828e-02, -1.35614481e-02,
          -2.01616921e-02, -2.61018914e-03, -1.88719109e-03,
          1.49606401e-02, 2.65877079e-02, 2.55816579e-02,
          -1.14443526e-02, -2.60439403e-02, -5.56792952e-02,
          -4.98985313e-02, 3.09132580e-02, 8.63930136e-02,
          6.45530820e-02, 8.72517899e-02, 3.62368971e-02,
          -1.84652244e-03, 1.32391183e-02, 4.69317567e-03,
          -1.12065319e-02, 9.33539588e-03, 1.42480731e-02,
          -1.80117823e-02, -1.35951554e-02, -2.79097818e-02,
          -3.41623202e-02, -2.23407615e-02, 1.53965959e-02,
          9.76768974e-03, -1.50103550e-02, 1.05330246e-02,
          2.24561859e-02, 6.63928641e-03, -4.16006185e-02,
          -4.38879021e-02, -1.00508947e-02, 4.55766730e-02,
          -6.13374694e-04, 2.34363079e-02, 6.91872314e-02,
          2.21240520e-02, 2.47172434e-02, -3.00285453e-03,
          -1.93790365e-02, 1.14694762e-03, 2.70913281e-02,
          1.23283761e-02, 1.44230491e-02, 4.20584045e-02, 4.24977578e-02,
          1.80970300e-02, -2.31256727e-02, -1.78583581e-02,
          2.96930782e-02, 5.38936406e-02, 1.21143146e-03, 1.75021514e-02,
          8.65405127e-02, 6.78016618e-02, 3.84917259e-02, 8.00156151e-04,
          -1.25998557e-02, 1.99982394e-02, 4.65997681e-02,
          -1.03314156e-02, -3.98992747e-03, 8.27165022e-02,
          2.37430446e-02, -3.17529179e-02, -2.68382709e-02,
          -8.35718066e-02, -4.60918210e-02, -9.76844970e-03,
          -4.18689661e-02, -9.09368228e-03, 8.66700932e-02,
          8.31142515e-02, 4.06278260e-02, -1.57902725e-02,
          1.65993236e-02, 4.48573604e-02, 4.08237055e-02,
          -3.12632285e-02, -5.00233173e-02, 4.12263758e-02,
          1.08059822e-02, -3.41700800e-02, -1.49789229e-02,
          -4.68415134e-02, -9.51743964e-03, -3.75202969e-02,
          -9.07658339e-02, 3.03579750e-03, 6.90751523e-02,
          4.89023849e-02, 1.75975449e-02, -1.15959868e-02,
          -1.85341723e-02, -1.64949559e-02, 3.94943953e-02,
          -4.71425737e-05, 4.00902936e-03, 3.23105901e-02,
          2.17058379e-02, -5.99254481e-03, 8.30508769e-03,
          -7.90154189e-03, -4.64610429e-03, 1.77104231e-02,
          3.91051034e-03, -1.33918989e-02, 6.31402358e-02,
          3.66811603e-02, -1.49758607e-02, -4.53944430e-02,
          -2.06793286e-02, -3.27317254e-03, -7.76246234e-05,
          -1.59846470e-02, -6.91026961e-03, 2.61373203e-02,
          2.05166917e-03, -4.12941799e-02, -3.59599404e-02,
          -1.99696645e-02, -3.21499519e-02, -1.33728771e-03,
          1.17022395e-02, 3.55993137e-02, 3.33996788e-02,
          -4.44226526e-03, -1.29396049e-02, -4.07187678e-02,
          -1.13663739e-02, 3.40920314e-03, 3.39199826e-02,
          2.29019914e-02, 4.67696339e-02, 4.90597114e-02, 5.44227427e-03,
          -2.28763968e-02, -3.42451669e-02, -2.99010780e-02,
          -6.64901081e-03, 3.38343270e-02, 1.77473910e-02,
          1.53323226e-02, 3.35636511e-02, -4.37429221e-03,
          -1.41919795e-02, -3.59892361e-02, -1.56130390e-02,
          -1.69017296e-02, 2.28276271e-02, 1.05573172e-02,
          3.41451913e-02, 2.96777468e-02, -1.30912261e-02,
          -4.11964953e-02, -1.76671706e-02, -3.24713700e-02,
          -1.67884976e-02, 9.65770613e-03, 4.71118279e-03,
          2.22017691e-02, 5.62519282e-02, 2.95483768e-02, 3.04025807e-03,
          -4.06681839e-03, 2.99152243e-03, 2.29002000e-03,
          4.06269580e-02, 2.53346972e-02, 9.04865470e-03, 4.28461172e-02,
          -1.38728246e-02, -1.67920496e-02, -2.23831441e-02,
          -3.46415676e-03, 3.24100605e-03, 9.21716075e-03,
          -1.50486864e-02, 1.75122183e-03, 2.20211856e-02,
          4.71996004e-03, -9.30562243e-03, -8.11680313e-03,
          -9.34268872e-04, -3.33563122e-03, 3.20269465e-02,
          5.74276689e-03, -3.98453027e-02, 1.32701406e-03,
          -1.75976194e-02, -1.38743045e-02, -4.24214453e-03,
          -3.88992811e-03, -7.82794505e-03, 1.61785465e-02,
          -3.08908336e-02, 2.54948065e-02, 5.67701980e-02,
          -1.16745732e-03, -7.65954284e-03, -2.03658119e-02,
          1.60493143e-02, -1.60521604e-02, -6.06504921e-03,
          1.04420213e-02, 2.32746154e-02, 5.35678044e-02,
          -1.11392876e-02, -4.46254313e-02, -1.72922127e-02,
          1.15187587e-02, 7.91443884e-03, 2.16536038e-02, 1.60931926e-02,
          -2.01555842e-04, 4.02877033e-02, 1.46509777e-03,
          8.06862582e-03, -2.15830635e-02, 1.00487312e-02,
          -8.94244015e-03, 4.78541432e-03, -1.68020260e-02,
          -3.51785379e-03, 1.50022348e-02, -2.32378263e-02,
          -4.85544689e-02, -6.51515787e-03, -1.14638684e-02,
          -1.87451839e-02, 6.68648910e-03, -2.86354106e-02,
          5.21901771e-02, 5.20952195e-02, -1.99597757e-02,
          -3.73891219e-02, 1.40747670e-02, 8.15508142e-03,
          8.95419810e-03, 2.42943894e-02, 3.55586484e-02, 4.94562685e-02,
          4.66801375e-02, -1.93929728e-02, -3.54739763e-02,
          3.88776418e-03, -1.32316700e-03, 6.53567817e-03,
          -4.53636888e-03, 1.25578400e-02, 7.15601636e-05,
          3.54760922e-02, -3.73451039e-02, -4.87345643e-02,
          -5.99503703e-03, -1.62380561e-02, -2.84879562e-03,
          3.23556252e-02, -1.24024982e-02, 6.09029271e-03,
          1.96613371e-02, -3.64400670e-02, -4.00004424e-02,
          -8.00857786e-03, 1.38325465e-03, -2.03937739e-02,
          6.91358373e-03, -6.21376652e-03, 3.07051763e-02,
          2.26524863e-02, -1.84211023e-02, -2.63574794e-02,
          -1.11843348e-02, -9.60782543e-03, -1.05351200e-02,
          -2.59901106e-04, 5.95948054e-03, 2.24510040e-02,
          1.45138968e-02, -2.81285811e-02, -2.05459669e-02,
          -1.45900995e-02, -2.18948256e-02, -3.21188048e-02,
          -1.53647026e-03, 1.57802179e-02, 1.10760331e-02,
          8.52906611e-03, -2.01643761e-02, -4.00992036e-02,
          -1.66933034e-02, -3.20485234e-02, -2.64133085e-02,
          1.85112339e-02, -1.49677170e-03, 3.25752050e-02,
          1.91357210e-02, 4.07450041e-03, -5.25824018e-02,
          -2.53408831e-02, -4.03211303e-02, -2.70461142e-02,
          2.12755054e-02, 3.28745916e-02, 1.24582648e-03, 2.83512995e-02,
          -2.51983814e-02, -2.00615507e-02, 4.76886937e-03,
          4.69101733e-03, -2.61616968e-02, 1.72527172e-02,
          -2.95217312e-03, 5.63765178e-03, 2.66090129e-02,
          7.14794639e-03, 1.62220970e-02, -2.17851121e-02,
          1.84266130e-04, -2.10255478e-02, 1.61167979e-02,
          -1.31341238e-02, 5.62094199e-03, 3.68712917e-02,
          -7.37942569e-03, -6.06060922e-02, -2.91390549e-02,
          -1.97937377e-02, -8.91440175e-03, 9.06905904e-03,
          1.16676120e-02, 1.02549531e-02, 3.89388427e-02, 3.75905482e-04,
          -2.25951076e-02, -2.64762994e-02, -6.22070534e-03,
          -5.43434964e-03, -5.99289080e-04, 1.02165882e-02,
          1.48347057e-02, 1.06953057e-02, -8.62689037e-03,
          -3.09477607e-03, -2.65479330e-02, -3.51442434e-02,
          -5.23848794e-02, 2.62878230e-03, 3.44120851e-03,
          3.05691995e-02, 2.92497817e-02, -4.61211835e-04,
          8.62113852e-03, -1.68418624e-02, -1.70014948e-02,
          -2.81257723e-02, 6.27312902e-03, 6.32196711e-03,
          2.39784885e-02, 3.44724245e-02, -1.61285978e-02,
          -2.34688129e-02, -4.63197380e-02, -4.24061194e-02,
          -3.24740671e-02, 3.26968473e-03, 2.96595804e-02,
          3.93655710e-02, 3.93314101e-02, 1.99383982e-02, 1.67517755e-02,
          -1.52615150e-02, -2.82303281e-02, 2.05122493e-03,
          2.92273406e-02, 6.09775223e-02, 1.39491986e-02, 4.48105559e-02,
          8.84981453e-03, 4.58849128e-03, 1.53453797e-02, 7.05076335e-03,
          -1.02148354e-02, 7.39619788e-03, 5.53140475e-04,
          -2.43277159e-02, 4.92500886e-03, -2.72946320e-02,
          -9.51733533e-03, -3.46619170e-03, -4.88348864e-03,
          -8.23737215e-03, -8.94297566e-03, -4.52868454e-02,
          5.00079691e-02, 5.10010421e-02, 5.22827618e-02, 3.51654328e-02,
          4.06876812e-03, -6.96537504e-03, -2.72725767e-04,
          1.74054801e-02, 5.09751812e-02, -2.85394629e-03,
          3.07663083e-02, -6.91659609e-03, 1.27491485e-02,
          1.92196518e-02, -1.90734165e-03, 8.36723763e-03,
          2.66081225e-02, -1.44616915e-02, -9.36480891e-03,
          7.10678287e-03, -5.28996624e-03, 4.38141674e-02,
          2.01302394e-02, 1.16279721e-02, 1.03596961e-02,
          -8.17658566e-03, -2.86804307e-02, -3.98833118e-02,
          -2.11602282e-02, -1.96418390e-02, -1.29635567e-02,
          1.42943766e-02, -5.35909645e-03, -1.47595322e-02,
          -1.81890000e-02, -2.87009869e-02, 3.01355589e-03,
          5.82815632e-02, 1.01803541e-02, 5.06957322e-02, 5.43471575e-02,
          6.16261400e-02, 4.34275456e-02, 4.29390632e-02, 5.45894448e-03,
          -3.23813148e-02, -1.75465047e-02, -1.74075384e-02,
          -1.30602000e-02, -7.60080339e-03, 9.35018156e-03,
          -5.98919360e-05, -2.61921575e-03, -1.16552571e-02,
          -1.00855976e-02, 2.23567225e-02, 1.63233038e-02,
          -4.41282243e-03, -1.83691122e-02, 2.45908834e-02,
          2.22540670e-03, 2.32754778e-02, 2.82273116e-03,
          -2.68380679e-02, 3.66670109e-04, -1.02762096e-02,
          2.32603238e-03, -2.07123216e-02, 2.60819532e-02,
          6.41876832e-03, -2.08591553e-03, -3.19114141e-02,
          -1.53376730e-02, 6.28506206e-03, -3.17787542e-03,
          2.67459196e-03, -2.91873980e-02, 5.23059331e-02,
          2.48394031e-02, 2.22501662e-02, 1.54803107e-02,
          -2.92913336e-02, -8.00954551e-03, -1.91423502e-02,
          -1.44632459e-02, -1.76034607e-02, 5.22967130e-02,
          3.36130522e-02, 2.54386161e-02, -1.96757149e-02,
          2.49333158e-02, 1.30042918e-02, -7.37508852e-03,
          1.21920677e-02, -1.38897663e-02, 2.10650102e-03,
          -1.51122473e-02, -1.51042677e-02, 5.92987344e-04,
          1.19054196e-02, -1.47771267e-02, 2.71531590e-03,
          4.19454314e-02, 1.17763574e-03, -1.60819590e-02,
          -1.02961594e-02, -1.79168377e-02, -1.21911326e-02,
          -4.49294876e-03, -7.66042504e-04, 1.15518663e-02,
          3.27140559e-03, -1.20858587e-02, 4.03736010e-02,
          2.18595751e-02, 4.86642681e-03, -6.56970637e-03,
          -7.49200641e-04, -1.53719075e-02, 2.77760532e-02,
          4.17047814e-02, 1.55953262e-02, 1.74740497e-02, 2.75330269e-03,
          -1.14738429e-03, -2.80575771e-02, -7.23749399e-03,
          -1.02707539e-02, -2.52214540e-03, 4.07208949e-02,
          2.09100191e-02, -8.79767351e-03, -9.73488670e-03,
          3.31499148e-03, -7.13147642e-03, 2.33644452e-02,
          1.79764498e-02, 1.47189535e-02, 1.41537087e-02, 1.77951821e-03,
          1.79305635e-02, -4.63845255e-03, 5.87997818e-03,
          2.74801925e-02, -3.98477912e-03, -3.18665802e-02,
          -1.09820087e-02, 2.18511708e-02, 2.21322849e-02,
          -1.08822258e-02, -1.88377723e-02, 6.08197367e-03,
          -1.74714234e-02, 5.90501074e-03, -1.05517972e-02,
          4.41878196e-03, 3.78035038e-04, -1.45752653e-02,
          -2.53007328e-03, 1.27192978e-02, 1.32261356e-02,
          1.56994648e-02, 4.81601199e-03, -1.58862825e-02,
          -1.17214741e-02, 1.66915841e-02, 3.18836533e-02,
          1.18371041e-03, -6.93186978e-03, 2.56587728e-03,
          2.19596233e-02, -7.67176412e-03, -3.24406754e-03,
          8.30399059e-03, 1.56327132e-02, 1.57600082e-02, 4.74876398e-03,
          3.79439956e-03, 1.65355410e-02, 1.29615283e-02, 7.53914099e-03,
          -3.26410867e-02, -1.29252803e-02, 7.20563298e-03,
          4.23951307e-03, 3.41865374e-03, -1.08268335e-02,
          -2.21036840e-03, 7.35382317e-03, 4.77505336e-03,
          -1.03889965e-02, 4.32907662e-04, 3.45120952e-02,
          -2.27154628e-03, 1.07181538e-02, 3.24011984e-04,
          1.50398416e-02, 8.56723171e-03, -2.65036919e-03,
          -5.71197690e-03, 1.16402088e-02, 1.29102664e-02,
          8.98770988e-03, 5.51936449e-03, -2.13707355e-03,
          9.67790466e-03, -1.33302342e-03, 3.24597768e-02,
          -3.79697758e-06, -1.39898192e-02, -8.21490539e-04,
          1.99823193e-02, -1.75550021e-02, 1.75571733e-03,
          8.68597627e-03, 3.44241001e-02, -8.62906873e-03,
          -4.60818829e-03, -1.28663611e-02, 2.57846303e-02,
          -9.23417881e-03, -5.05036674e-03, 3.83563975e-06,
          -6.63362769e-03, -1.27505371e-02, 1.23847341e-02,
          1.08662723e-02, -1.72574483e-02, 1.11002512e-02,
          -3.17996182e-02, -1.46733560e-02, -5.19034511e-04,
          1.30336424e-02, 7.46972580e-03, 3.28048551e-03,
          -2.85931546e-02, -3.49371210e-02, -3.69875506e-03,
          5.89656364e-03, -1.73391402e-02, -3.07894796e-02,
          -2.95499098e-02, 1.53723322e-02, 1.64363440e-03,
          -1.97855737e-02, 9.71256010e-03, 3.61925066e-02,
          1.18130380e-02, 4.52599451e-02, -1.68422260e-03,
          -3.48163508e-02, -1.08653260e-02, 3.81844281e-03,
          -2.31969692e-02, -4.76291776e-02, -2.34259758e-02,
          -1.36062326e-02, -2.22409330e-02, -1.88590363e-02,
          -1.33717414e-02, 5.55478176e-03, -1.16275856e-02,
          -2.89943609e-02, -1.19636916e-02, 3.68784294e-02,
          2.33682804e-02, 3.94411795e-02, 1.57235190e-02, 4.52629849e-03,
          -1.02053192e-02, -2.24927422e-02, -2.53496617e-02,
          -3.08795180e-03, 6.72839768e-03, -1.49857672e-02,
          6.72883308e-03, -3.98800010e-03, -3.66088897e-02,
          -3.66942957e-02, 3.73927364e-03, 7.27657005e-02,
          4.64545526e-02, 4.86740395e-02, 2.01569609e-02, 1.40684238e-02,
          1.96139608e-02, 2.31637508e-02, -7.25358259e-03,
          -5.40486574e-02, -3.26931663e-02, -1.75095871e-02,
          1.59161333e-02, 7.87392445e-03, 3.54148448e-02, 2.34025680e-02,
          -1.86110288e-02, -3.62394191e-02, -7.86834303e-03,
          4.83398624e-02, 2.26086974e-02, 3.14939320e-02, 2.30013784e-02,
          1.67294480e-02, 4.57573086e-02, 5.37015423e-02,
          -1.27491215e-03, 9.85510927e-03, 6.74000606e-02,
          3.04927267e-02, 9.01128165e-03, -1.31379124e-02,
          -4.58252942e-03, 2.52351761e-02, 4.78918105e-02,
          1.14485733e-02, -3.13717499e-02, 2.33090110e-02,
          3.51893045e-02, -7.55410083e-03, -1.68543588e-02,
          1.05664097e-02, 3.66053134e-02, 2.83110067e-02,
          -2.64575612e-02, 5.89048723e-03, 6.46750182e-02,
          3.61786895e-02, -9.30462778e-03, -2.12645121e-02,
          -2.33314075e-02, 3.35869491e-02, 8.08410496e-02,
          2.57670209e-02, -3.44733447e-02, 2.15119123e-02,
          3.11118588e-02, -2.58633289e-02, 1.34586473e-03,
          9.54916060e-04, 5.09772003e-02, 3.27794440e-02,
          -1.79910008e-02, -6.57089129e-02, 3.91569585e-02,
          7.11828396e-02, 3.49145457e-02, 7.76136527e-03, 7.07176179e-02,
          7.08834156e-02, 2.64840014e-02, -5.12353554e-02,
          -9.25921276e-02, 1.06570721e-02, 1.56394057e-02,
          -2.70191245e-02, 1.58915660e-04, 3.55979078e-03,
          4.30711769e-02, -4.80792299e-03, -7.74947777e-02,
          -5.71947061e-02, 3.29973847e-02, 5.87865897e-02,
          3.53360288e-02, 3.37715000e-02, 6.85203001e-02, 1.01632670e-01,
          5.82699217e-02, -5.39165922e-02, -1.00466818e-01,
          -1.59341749e-02, 1.02584427e-02, -2.09520888e-02,
          2.01943107e-02, -1.57506336e-02, 2.53015719e-02,
          2.11721635e-03, -9.58452225e-02, -3.80489714e-02,
          3.72309536e-02, 1.40805850e-02, -1.50177935e-02,
          -4.17465158e-02, 6.11714972e-03, 2.43683904e-02,
          1.82069689e-02, -3.43272798e-02, -2.53366269e-02,
          6.76067313e-03, -2.45145969e-02, -3.65202725e-02,
          -2.31551025e-02, -2.26272792e-02, -2.41787136e-02,
          -1.23877721e-02, -9.39899590e-03, -4.35303859e-02,
          2.48502325e-02, 7.51063600e-03, -1.89098325e-02,
          -3.69154103e-02, 6.33159245e-04, 3.00835930e-02,
          3.48574072e-02, -4.69174348e-02, 5.86506585e-03,
          8.88109673e-03, -2.69314665e-02, -4.13986929e-02,
          -1.95385404e-02, -2.96066776e-02, -2.75738128e-02,
          -1.94342900e-02, -1.10995378e-02, -1.64030585e-02,
          -2.62379111e-03, -5.41293807e-03, 4.77243774e-03,
          1.92356911e-02, 1.51868351e-02, -8.96361656e-03,
          -8.46225210e-03, -1.58628616e-02, -2.27124579e-02,
          -1.79483672e-03, -1.57163050e-02, -3.36752385e-02,
          1.33320233e-02, -6.98913820e-03, 5.81729272e-03,
          9.97394230e-03, -3.87291238e-02, -1.55403675e-03,
          2.05281563e-02, -1.12186745e-03, -1.85989449e-03,
          2.34839190e-02, -3.98008339e-03, -3.14079411e-02,
          -3.05861980e-02, -5.41311642e-03, -4.06444445e-02,
          1.36887375e-03, -3.81612661e-03, -2.27232818e-02,
          2.47003082e-02, -2.96626929e-02, -3.53763290e-02,
          -1.57355852e-02, -3.43728811e-02, -2.92888619e-02,
          -3.09126517e-05, 1.07098499e-03, -4.58283070e-03,
          3.18282060e-02, 1.68766398e-02, 5.91887953e-03, 3.02430522e-02,
          -2.06866339e-02, -5.15957475e-02, -1.54177146e-02,
          5.43709472e-03, 2.35168412e-02, 7.00069312e-03, 5.83210168e-03,
          -8.40991829e-03, 1.64266918e-02, -5.02745323e-02,
          -3.50883938e-02, 1.35352183e-03, 2.09860057e-02,
          3.09627852e-04, 3.09990142e-02, -4.79553640e-03,
          -1.41247166e-02, 1.59714837e-02, -2.86289267e-02,
          -5.51213026e-02, 1.32794511e-02, 2.25838795e-02,
          1.83695294e-02, -8.79962929e-03, 2.43025441e-02,
          -2.59204078e-02, -2.25547235e-02, -5.10713458e-02,
          -3.76777649e-02, 5.71225304e-03, 2.28088368e-02,
          1.75904669e-02, 1.08114837e-04, 1.32754920e-02,
          -1.40937092e-02, 6.73768402e-04, -2.74399687e-02,
          -3.00506875e-02, -6.97805453e-03, -1.82171483e-02,
          1.42072635e-02, 3.14602666e-02, -1.42434090e-02,
          -2.94769350e-02, 5.13800466e-03, -3.23718414e-02,
          -3.39481011e-02, 7.09388033e-03, 8.92151054e-03,
          1.63819380e-02, 1.45653663e-02, 2.98455730e-02, 8.95315970e-05,
          -1.18746283e-02, -4.38805930e-02, -5.51197231e-02,
          -1.39104426e-02, -2.08705869e-02, -3.30827024e-04,
          2.87198089e-02, -2.82876124e-03, -2.01261789e-02,
          -6.92900084e-03, -3.72119844e-02, -1.86129585e-02,
          2.98957769e-02, -1.11402767e-02, -1.08661251e-02,
          1.03772599e-02, -2.46632826e-02, -3.63468640e-02,
          3.75322960e-02, 3.20428563e-03, -8.87161866e-03,
          3.00022103e-02, -2.15662736e-02, -1.60832088e-02,
          2.07999609e-02, -2.23447960e-02, -4.73882891e-02,
          2.05143206e-02, -1.28133558e-02, -9.44335293e-03,
          3.52466069e-02, -1.15798796e-02, -1.90147404e-02,
          8.81874876e-04, -1.97662599e-02, -2.30388530e-02,
          1.38116805e-02, -2.52756309e-02, -3.36833484e-02,
          2.41367538e-02, -1.41308957e-03, -3.45254317e-02,
          1.19452924e-02, -2.01305561e-02, -4.03569303e-02,
          1.15592480e-02, -2.01249700e-02, 4.65872791e-03,
          4.34730686e-02, -5.32919914e-03, -1.92903634e-02,
          1.02972593e-02, -2.93022580e-02, -4.00137678e-02,
          5.59949800e-02, 1.28803281e-02, 2.63288338e-02, 3.44213285e-02,
          1.37853641e-02, -6.47555590e-02, -3.27646621e-02,
          -3.47012281e-02, 3.58335837e-03, 6.40926883e-02,
          3.94813344e-02, -1.05119671e-03, 4.70647849e-02,
          6.85294578e-03, -3.66878435e-02, -7.21778022e-03,
          -2.60267667e-02, -3.83997969e-02, 3.76791172e-02,
          -7.73297250e-03, 3.05054914e-02, 5.51460646e-02,
          -1.80393588e-02, -6.06367514e-02, -3.19300443e-02,
          -5.76367378e-02, 1.27318772e-02, 3.48240435e-02,
          1.68715864e-02, 3.00438404e-02, 4.94497195e-02,
          -6.56783860e-03, -7.15758279e-02, -3.00445985e-02,
          -3.15878205e-02, -3.40602943e-03, 3.88129614e-02,
          1.68042537e-02, 2.96864565e-02, 3.86637561e-02,
          -2.72370540e-02, -3.58166620e-02, -2.65476461e-02,
          -2.07298528e-02, -2.18572486e-02, 1.99690065e-03,
          6.54410385e-03, 2.54767705e-02, 5.15829027e-02,
          -2.68031582e-02, -5.40123470e-02, -2.74594668e-02,
          -4.65268455e-02, 1.43966535e-02, 4.41012867e-02,
          2.65088845e-02, 1.64521243e-02, 1.81624740e-02, 4.91395360e-03,
          -7.27273105e-03, -2.56414078e-02, -2.47351658e-02,
          -2.47344710e-02, 5.44907935e-02, 2.84918863e-02,
          2.22582445e-02, 3.52451950e-02, -1.60181168e-02,
          -2.70148497e-02, -3.90177853e-02, -4.39086929e-02,
          -3.92461047e-02, -1.20519213e-02, 2.69391574e-03,
          4.02937643e-02, 3.66995521e-02, 2.56525613e-02, 2.61077774e-03,
          -3.70786786e-02, -3.99676710e-02, 2.08680127e-02,
          3.15368548e-02, 3.74068692e-02, 1.97374448e-02,
          -5.54522360e-03, -1.41133536e-02, -1.06623834e-02,
          -3.13568823e-02, -4.90228757e-02, -3.63246650e-02,
          2.63468828e-02, 3.66448611e-03, 2.83473227e-02, 2.78596133e-02,
          3.27097178e-02, -9.41900350e-03, -3.20107639e-02,
          -1.80279687e-02, 2.58689839e-02, 4.35952954e-02,
          1.07832048e-02, -4.78494586e-03, 1.37148798e-02,
          2.68842895e-02, 2.44910829e-02, -4.70963260e-03,
          -1.36080319e-02, 1.01409238e-02, 1.03686797e-02,
          2.06140224e-02, -4.86360416e-02, 1.09034274e-02,
          7.62737589e-03, 1.81233324e-02, 3.20294984e-02, 5.14581427e-03,
          2.23257430e-02, 2.01189015e-02, -1.97858308e-02,
          1.76196806e-02, 3.25735565e-03, 1.56429422e-03,
          -2.05191295e-03, -2.99167330e-03, 2.31710859e-02,
          3.13338861e-02, 2.30447352e-02, 5.22016874e-03,
          -2.07362156e-02, 1.40189892e-02, 1.21353362e-02,
          5.17270016e-03, 3.20353732e-02, -9.24959406e-03,
          1.11544188e-02, -1.86277961e-03, -3.26457545e-02,
          -2.52713673e-02, 2.84603015e-02, 1.45201646e-02,
          5.49878776e-02, 5.94364405e-02, 5.81794120e-02, 3.58439945e-02,
          3.10798492e-02, -7.07910024e-03, -3.64197008e-02,
          -2.83782966e-02, -3.90642919e-02, -1.26419412e-02,
          -2.29195114e-02, 8.75501055e-03, -9.74531379e-03,
          -1.76169798e-02, -2.37696450e-02, -7.65796285e-03,
          3.17468457e-02, 3.91514301e-02, 6.73247948e-02, 7.20123947e-02,
          1.91918388e-02, 1.31197227e-02, 2.52386443e-02,
          -1.76645187e-03, -1.61166247e-02, -1.82835683e-02,
          -1.69170573e-02, -4.24360274e-04, -2.32311618e-03,
          -9.66560375e-03, -5.06556332e-02, -2.97763180e-02,
          -2.47953273e-02, -1.25322230e-02, 4.44712862e-03,
          -2.18194984e-02, 1.97984632e-02, -2.87165493e-03,
          4.32202891e-02, 9.63823963e-03, 5.73223596e-03, 6.51096413e-03,
          -1.71461534e-02, -3.75827588e-03, -2.51300707e-02,
          -1.95810851e-02, -1.63666103e-02, 2.98108980e-02,
          -8.09685327e-03, 1.39704859e-02, -5.62158506e-03,
          1.13925766e-02, 4.94926330e-03, 7.10782688e-03, 4.07706909e-02,
          2.47572046e-02, 3.94343026e-02, -2.79582944e-02,
          -4.78673726e-03, 1.03480862e-02, -7.13483337e-03,
          7.54184509e-03, 8.49006989e-04, -6.62152655e-03,
          -1.51754105e-02, -1.05215171e-02, -2.87032314e-02,
          -8.42603110e-03, -1.92888803e-03, -1.02246171e-02,
          -1.52908987e-03, 1.30071025e-02, 7.49081280e-03,
          -1.85473934e-02, 3.71990390e-02, 2.26306282e-02,
          5.80743281e-03, -4.90468834e-03, -1.00887138e-02,
          -3.09491213e-02, 1.38808461e-02, 4.40823138e-02,
          7.98421167e-03, 2.04541441e-02, 5.15974220e-03,
          -8.00569355e-03, -7.76884099e-03, 5.55674639e-03,
          6.68996759e-03, 1.51543124e-02, 8.44583439e-04,
          -2.07470264e-02, -2.36554095e-03, 1.59100052e-02,
          2.74404325e-03, 7.77555071e-03, -8.24824534e-03,
          -3.24981399e-02, -3.04716732e-03, 1.94293540e-02,
          4.13267389e-02, 3.68854403e-02, 8.13554414e-03,
          -4.60967538e-04, -8.52057245e-03, -4.99980757e-04,
          -3.57189067e-02, -2.22919509e-03, 1.54621163e-02,
          1.21598374e-02, -1.71092432e-02, -1.08686062e-02,
          -1.84906938e-03, -2.37404788e-03, 8.50372482e-03,
          -1.69144161e-02, 4.40653600e-03, -8.51812307e-03,
          -2.08423790e-02, -2.91966349e-02, 2.35189609e-02,
          -9.99778230e-03, 5.31363115e-03, 3.39161162e-03,
          -1.46218566e-02, -1.08573781e-02, 1.43823223e-02,
          3.14942598e-02, 2.88935564e-03, 1.38903856e-02,
          -1.05105620e-02, -7.31981918e-03, 7.18890317e-03,
          1.72939263e-02, 2.34699398e-02, 2.04188842e-03, 7.16968952e-03,
          -1.22713121e-02, 2.43341494e-02, -1.13690896e-02,
          9.51070432e-03, 1.54288961e-02, 5.19897323e-03,
          -1.55997451e-03, 3.47279105e-03, 3.60696986e-02,
          7.63858948e-03, -1.39220245e-02, -1.06080864e-02,
          1.08343561e-03, 1.36634745e-02, 2.32401360e-02, 2.75494764e-03,
          2.44829934e-02, 2.21879594e-02, -9.80424578e-04,
          -2.83053424e-03, 9.89694986e-03, 2.11901460e-02,
          1.20741082e-02, -2.74592428e-03, -1.27945105e-02,
          5.64102409e-03, 1.80951785e-02, 2.50332057e-02, 1.39136333e-02,
          4.61022602e-03, 1.26151033e-02, 1.43832527e-02, 2.79187262e-02,
          -6.45517930e-03, 6.48935791e-03, -1.45315416e-02,
          -3.12465965e-03, 1.29579995e-02, 9.63343424e-04,
          -4.81673429e-04, -1.88391581e-02, -4.60176589e-03,
          -1.15408981e-02, 3.57531048e-02, 1.33647136e-02,
          -3.88034177e-03, 7.44953938e-03, -9.12315212e-03,
          3.23442975e-03, -1.11199478e-02, 2.78317049e-04,
          -1.34882061e-02, 1.45284785e-02, -1.28774280e-02,
          5.85313234e-03, 7.53278518e-03, 2.03355271e-02,
          -1.20497029e-02, 3.08254897e-03, -1.33856945e-02,
          -1.58379525e-02, 3.32239419e-02, 1.62386000e-02,
          -7.43431970e-03, -7.33762141e-03, -7.15485541e-03,
          -1.64213609e-02, 1.17914462e-02, -7.59155583e-03,
          7.87610596e-04, 3.58946584e-02, 1.35726864e-02, 3.20680737e-02,
          -8.28260276e-03, -9.06927232e-03, -1.73577014e-02,
          -4.69395239e-03, -1.08631253e-02, -3.64937969e-02,
          -3.52110565e-02, -1.36339488e-02, -1.17248558e-02,
          -9.45655908e-03, 1.29284535e-03, -1.15308883e-02,
          2.74634804e-03, -2.28888281e-02, -3.52720544e-02,
          1.60694066e-02, 9.81120858e-04, 1.61966495e-02, 1.34086115e-02,
          3.00009735e-02, 9.38170683e-03, -3.54926009e-03,
          -4.20251768e-03, -2.08926480e-02, -1.84875894e-02,
          -2.54949853e-02, -1.85620748e-02, -1.49116535e-02,
          -1.93210766e-02, -1.21449772e-02, -2.47089099e-02,
          -1.16220061e-02, -7.52072129e-03, 9.24649276e-03,
          -1.43096969e-02, 1.75166558e-02, 1.41798789e-02,
          1.16040548e-02, 1.82376355e-02, -3.18815447e-02,
          -3.45812328e-02, -2.46494357e-02, -4.35980549e-03,
          3.66734862e-02, 5.76705933e-02, 4.10483591e-02, 2.20622309e-02,
          -6.46913890e-03, -7.26274354e-03, 2.11174954e-02,
          1.63262654e-02, 1.08502377e-02, 4.30028215e-02, 6.26718402e-02,
          6.37309924e-02, 6.71429932e-02, 1.80729888e-02,
          -4.08843309e-02, -3.53650749e-02, -2.90206559e-02,
          -3.17232609e-02, -4.53493651e-03, 1.83237344e-02,
          2.25721747e-02, -9.52075643e-04, -2.41876449e-04,
          -3.28494012e-02, -2.13318914e-02, -1.94618441e-02,
          -4.06950116e-02, -1.29276677e-03, 3.25345546e-02,
          3.44445407e-02, 3.04885972e-02, 1.99698322e-02, 2.80090906e-02,
          4.89579588e-02, 6.94884593e-03, -2.28786394e-02,
          5.92156639e-03, 3.27300793e-03, 3.36552337e-02, 6.97818846e-02,
          4.00983766e-02, 2.51409318e-03, 7.06950873e-02, 1.38067454e-02,
          -1.23735620e-02, 1.27072455e-02, 2.91957837e-02,
          6.78703189e-02, 5.42438701e-02, -3.49038094e-03,
          2.47525442e-02, 1.21773295e-02, -2.88809277e-02,
          -3.46190296e-02, -2.35330276e-02, -5.72215160e-03,
          2.89201760e-03, 2.53571919e-03, 2.33713184e-02,
          -1.02294162e-02, 2.22184639e-02, -3.71375717e-02,
          -2.92423088e-02, -1.71417557e-02, -8.23150855e-03,
          9.28061828e-03, 1.47474906e-03, -1.52127594e-02,
          -3.68404724e-02, 6.34123385e-02, 2.95071956e-02,
          5.66222845e-03, 3.09435744e-02, 5.98208420e-02, 1.19148329e-01,
          9.65480655e-02, -3.69726680e-02, -8.74612331e-02,
          -4.12596716e-03, -7.17341807e-03, -5.17229661e-02,
          9.71222110e-03, -3.25303618e-03, 4.50004004e-02,
          5.76927401e-02, -5.14177531e-02, -2.02171039e-02,
          2.33626515e-02, -9.26096551e-03, -1.41067207e-02,
          1.59118534e-03, 1.89203396e-02, 5.52145317e-02, 7.94533119e-02,
          -5.79766231e-03, -3.00115496e-02, -2.69277990e-02,
          -4.85223047e-02, -7.75042921e-02, -2.38076150e-02,
          -3.01897172e-02, 1.40973413e-02, 5.89905903e-02,
          -6.50763419e-03, -2.07129624e-02, 1.59084257e-02,
          2.36014079e-04, -3.50541882e-02, -4.01847474e-02,
          2.14562472e-03, 5.35947494e-02, 6.68307319e-02,
          -1.05469180e-02, 2.88188681e-02, 1.03237899e-02,
          -1.48655055e-02, -5.64876646e-02, -2.02140566e-02,
          -1.93118099e-02, -2.52261088e-04, 1.90981384e-02,
          6.18589111e-03, 1.33674848e-03, 3.97815881e-03,
          -1.08263502e-02, -3.09261438e-02, -7.31004309e-03,
          1.48469480e-02, 3.30915004e-02, 5.01881130e-02, 1.28131770e-02,
          1.54872006e-02, 2.07309215e-03, 1.58925895e-02,
          -3.86162326e-02, -1.50688989e-02, -1.01564182e-02,
          1.19382329e-02, 3.13857198e-02, 2.84913164e-02, 1.71228014e-02,
          2.12850180e-02, -1.74317565e-02, -3.81535180e-02,
          -2.32363120e-02, -9.61028785e-03, -2.80745737e-02,
          2.42764242e-02, 3.04051694e-02, 1.56247918e-03, 9.99015104e-03,
          -1.18416110e-02, -4.00715061e-02, -1.56616196e-02,
          -3.19588445e-02, -3.28036621e-02, 6.65236777e-03,
          2.99761500e-02, 3.42375115e-02, 3.00053973e-02, 1.23459175e-02,
          -2.41384823e-02, -3.50655280e-02, -2.27848142e-02,
          2.05218815e-03, 3.48160192e-02, 4.37549688e-02, 1.97263667e-03,
          7.01801851e-03, -1.40725775e-02, -4.21511047e-02,
          -2.30724737e-02, -2.60518249e-02, -8.62821657e-03,
          3.04110553e-02, 3.20976377e-02, 1.07141575e-02, 3.43645886e-02,
          6.77263178e-03, 4.18430986e-03, -3.65646818e-04,
          4.07510530e-03, -5.71789546e-03, 2.62188744e-02,
          1.96398702e-02, -3.06757796e-03, 1.95321161e-02,
          1.53104523e-02, 3.74140707e-03, -1.65590029e-02,
          -1.55081670e-03, -1.09631065e-02, 8.84272810e-03,
          -1.66924726e-02, 2.63430476e-02, 1.43778501e-02,
          -1.34205353e-02, -2.23517120e-02, -1.50889275e-03,
          1.06772995e-02, 8.66499264e-03, 4.94645275e-02, 2.06819046e-02,
          -2.54603624e-02, -3.10659851e-03, 5.66677516e-03,
          -1.66584123e-02, -1.44451438e-02, -1.49990786e-02,
          -6.70400541e-03, 3.72713134e-02, 2.44071018e-02,
          -1.44237168e-02, 2.39311960e-02, 1.90732554e-02,
          1.45831564e-02, -1.69672426e-02, 3.23559996e-03,
          -1.83735206e-03, 3.12979259e-02, 7.94981723e-04,
          -2.70689428e-02, -4.17523552e-03, -1.40258539e-02,
          -1.38630252e-03, 1.61780324e-03, -3.92313525e-02,
          -2.07515769e-02, 9.83958505e-03, 1.26399929e-02,
          -4.27627610e-03, -1.82170339e-03, -5.74436923e-03,
          5.51821385e-03, -2.54649930e-02, -3.07975393e-02,
          -5.41897072e-03, 4.87750396e-02, 2.39215065e-02,
          3.07206195e-02, 3.62410396e-03, -1.07835969e-02,
          3.46607761e-03, -1.58479400e-02, -5.24363443e-02,
          -2.14256141e-02, 4.39533703e-02, 2.96448767e-02,
          -8.47148709e-03, 1.23732733e-02, 4.97247325e-03,
          -2.52175843e-03, -2.70126667e-02, -3.51214856e-02,
          -4.20523100e-02, 1.14171747e-02, 9.14222095e-03,
          -4.35624504e-03, 5.86213032e-03, 2.19737558e-04,
          -6.06275024e-03, 3.91042558e-03, -2.29789000e-02,
          -5.55960052e-02, -2.84899445e-03, 2.84458138e-03,
          1.71258524e-02, 1.51729304e-03, 6.45261584e-03, 2.60121785e-02,
          -1.12087429e-02, -4.82233986e-02, -4.21391018e-02,
          3.75715760e-03, 2.30383631e-02, 9.96736903e-03,
          -1.07543459e-02, 9.90298297e-03, 8.33983906e-03,
          5.32848947e-03, -3.51718664e-02, -4.18464020e-02,
          2.57559419e-02, 3.53619717e-02, 1.09957671e-02, 3.75587679e-02,
          -5.65341441e-03, -4.10675183e-02, -6.37950283e-03,
          -1.53792929e-02, -2.40974929e-02, 2.49040648e-02,
          1.06903808e-02, 3.61209922e-02, 2.52093794e-03,
          -4.95553128e-02, -5.68160601e-02, -2.11936235e-02,
          -4.66498248e-02, -1.50007289e-02, 1.45475594e-02,
          1.21476911e-02, 1.50258625e-02, 4.27952316e-03,
          -1.23252431e-02, -2.92125642e-02, -2.18380727e-02,
          -1.50996801e-02, -2.35291626e-02, 2.91022789e-02,
          2.21285988e-02, 2.60225665e-02, -2.86793355e-02,
          -5.38667776e-02, -4.37165387e-02, -1.55923562e-02,
          -2.32345909e-02, -2.05877498e-02, 2.59990375e-02,
          1.12359542e-02, 2.46368125e-02, 1.73487011e-02,
          -1.09314807e-02, -2.23141033e-02, -1.51335038e-02,
          -3.25291902e-02, -1.28181418e-02, 2.82034185e-02,
          -1.44466772e-04, 1.39189577e-02, 2.19888594e-02,
          1.92230064e-02, 1.35566816e-02, -1.09721217e-02,
          3.30959992e-05, -7.69760599e-03, 4.14796360e-02,
          1.94945410e-02, 7.63111934e-03, 6.52553607e-03,
          -3.77938487e-02, 2.96355109e-03, 1.28318701e-04,
          -2.46825852e-02, -3.89833674e-02, 2.12550834e-02,
          2.59447610e-04, -4.37019067e-03, 1.59733165e-02,
          -1.94535758e-02, -5.30916674e-04, 8.90520681e-03,
          8.07199813e-03, -9.55736823e-03, 1.62701271e-02,
          2.01935321e-02, 3.14107575e-02, -4.65159974e-04,
          -3.67181422e-03, -2.63268761e-02, -2.71531511e-02,
          -1.94779653e-02, -9.08693019e-03, 3.88469063e-02,
          3.26564498e-02, 5.35807684e-02, 1.26895066e-02, 1.13837691e-02,
          -2.24960018e-02, -9.66173655e-04, 1.15459543e-02,
          3.33925709e-02, 5.43490946e-02, 2.30066963e-02, 4.97879041e-03,
          -3.74694122e-03, -4.04282026e-02, -3.26567031e-02,
          -1.39863109e-02, 8.48953240e-03, 6.10491401e-03,
          1.43779777e-02, 1.63153447e-02, 1.32587377e-03,
          -8.89228098e-03, -2.00742483e-02, -3.03219482e-02,
          -1.43825654e-02, 1.02423821e-02, -7.41294003e-04,
          2.43253652e-02, 9.74647235e-03, 3.56062502e-02, 1.65045634e-02,
          7.81535450e-03, 1.09753909e-03, 1.62440836e-02, 3.43217552e-02,
          3.89052816e-02, 4.60599959e-02, 3.50946747e-02, 1.03259180e-02,
          2.46267039e-02, 1.60207227e-02, 1.11479461e-02, 2.75762267e-02,
          1.66228656e-02, 1.22108515e-02, 5.57703059e-03,
          -1.14695570e-02, -6.11259718e-04, -1.34517057e-02,
          -2.23716106e-02, -1.37928696e-02, -4.51768795e-03,
          5.36760828e-03, -2.56536878e-03, 3.40694189e-02,
          7.95905478e-03, -3.99039052e-02, 6.56182738e-03,
          9.23992787e-03, -4.75972425e-03, -1.16233658e-02,
          1.03130983e-02, -1.41720623e-02, 8.47261678e-03,
          -3.72275934e-02, 2.14917250e-02, 4.61233445e-02,
          4.38082330e-02, 4.68085259e-02, 7.99880922e-02, 2.13170797e-02,
          1.03834011e-02, 3.64623144e-02, 7.23507395e-03, 7.38916593e-03,
          4.02384624e-03, 8.87754373e-03, 1.60652474e-02, 1.61199942e-02,
          -2.70558409e-02, -4.85471524e-02, -1.88654903e-02,
          -2.37081777e-02, -3.01615652e-02, 1.65552553e-02,
          1.92349609e-02, 1.35025941e-02, 5.44065703e-03, 3.59223112e-02,
          -3.75065370e-03, 1.25452655e-03, -2.35966314e-02,
          -4.07391228e-02, 7.60167697e-03, 1.11085270e-02,
          7.14006694e-03, 8.36838689e-03, -2.60928757e-02,
          -3.36703844e-02, -3.52263227e-02, -4.79856320e-02,
          7.90399872e-03, 1.17240893e-02, 1.80381089e-02, 3.12669799e-02,
          1.17607461e-02, 1.63962319e-03, -2.61413567e-02,
          1.22672636e-02, -9.84844659e-03, -1.06751062e-02,
          3.65552213e-03, 1.10741341e-02, 3.34531181e-02,
          -4.08355780e-02, -1.30849779e-02, -3.96517664e-02,
          -2.31491122e-02, -2.63726525e-02, -1.46785146e-02,
          2.69579776e-02, 1.17623853e-02, 2.96973754e-02,
          -3.16518769e-02, 7.87573401e-03, -9.24130902e-03,
          1.73922069e-02, -1.66430287e-02, -1.79454908e-02,
          -2.50290800e-03, 7.01510161e-03, 3.71028855e-02,
          -2.35767551e-02, 1.64284110e-02, -1.36236325e-02,
          -7.30060099e-04, -3.10866404e-02, -7.47091370e-04,
          -5.38172526e-03, 2.10431628e-02, 1.28924241e-02,
          -4.56978045e-02, -2.58397907e-02, -1.74508374e-02,
          -1.16472570e-02, -8.14644899e-03, -1.65106431e-02,
          -2.88762636e-02, -7.67192245e-03, 3.62014980e-03,
          2.54178867e-02, 2.69849990e-02, -2.75536999e-03,
          -3.76703055e-03, -2.77488539e-03, -2.65620206e-03,
          -2.13931967e-02, 1.65648442e-02, 2.80923266e-02,
          -2.31411848e-02, 6.21712347e-03, -1.11401444e-02,
          -4.01616376e-03, -2.55251536e-03, -5.21477079e-03,
          -4.28539282e-03, 2.85972506e-02, 1.97511027e-03,
          1.83423329e-03, 2.47130059e-02, 2.37850216e-03,
          -5.69929648e-03, 4.06982610e-03, -1.13377217e-02,
          -2.47233752e-02, -1.37742227e-02, -2.54480098e-03,
          1.91981103e-02, 1.50982682e-02, -6.02094550e-03,
          -2.48039272e-02, -1.06547317e-02, 9.88321938e-03,
          3.59648140e-03, 6.29831292e-03, 2.91255303e-03,
          -1.51260681e-02, -9.29846428e-03, -2.75329873e-03,
          -3.57646793e-02, -1.19273271e-02, -2.08411191e-04,
          -8.61784536e-03, 1.57580636e-02, 3.29602067e-03,
          4.49712165e-02, 4.22971286e-02, 3.77767108e-04,
          -3.97006832e-02, -2.27618124e-02, 2.45170128e-02,
          -6.43341755e-03, -1.37072336e-03, -6.90317433e-03,
          -2.20659338e-02, -3.53926932e-03, -1.19782118e-02,
          -3.04080974e-02, 9.22528096e-03, -8.71718116e-03,
          -1.19403666e-02, -3.20418440e-02, 2.46808515e-03,
          2.43810322e-02, 2.30240747e-02, 9.88166407e-03,
          -4.42090258e-03, 2.30005663e-02, 1.84468832e-02,
          1.71712842e-02, -2.25068610e-02, -8.74322001e-03,
          -2.47451360e-03, 1.30644860e-02, 1.79065615e-02,
          8.23634490e-03, 9.58712306e-03, 1.84981488e-02,
          -6.95884740e-03, -2.42355419e-03, 1.11758402e-02,
          3.27896513e-02, 2.62039099e-02, -1.31239137e-02,
          -9.36015043e-03, 3.34394649e-02, 1.95198767e-02,
          6.59229336e-05, -2.96672359e-02, -1.40344268e-02,
          9.40316077e-03, 5.95275350e-02, 8.29221308e-03, 1.91196846e-03,
          2.08884384e-02, 4.19138838e-03, -1.54055143e-02,
          -2.69703940e-02, 1.21382866e-02, 2.37879157e-02,
          8.87060631e-03, -3.21684266e-03, -1.26216812e-02,
          -7.14707468e-03, 5.13935462e-02, -1.87705886e-02,
          -1.04524447e-02, 2.69275233e-02, -2.39693094e-03,
          9.23695567e-04, -1.82743203e-02, -1.53660448e-02,
          1.92859750e-02, 8.55789427e-03, -7.75886886e-03,
          -1.86351482e-02, -8.09513591e-03, 1.41651565e-02,
          4.28331159e-02, 2.18049367e-03, -9.27897822e-03,
          4.83330601e-04, 2.06072368e-02, -9.70954262e-03,
          -9.81940422e-03, -1.29897438e-03, 1.99568812e-02,
          4.36532162e-02, 1.12426979e-02, 1.55510555e-03, 1.08626941e-02,
          4.05067503e-02, 7.66213576e-04, -1.03863999e-02,
          -2.00295961e-03, -2.75683850e-02, -2.42307037e-02,
          -1.74808521e-02, 1.72416423e-03, 1.17801558e-02,
          1.77682843e-02, -1.75728661e-03, 1.34986723e-02,
          2.51070615e-02, -2.00391673e-02, -6.57219160e-03,
          2.70071551e-02, 3.06242965e-02, 3.71658355e-02, 7.38851028e-03,
          -2.05873623e-02, -3.46662626e-02, -3.36226039e-02,
          -2.54146033e-03, -1.02569032e-02, -5.14236838e-03,
          3.38386511e-03, 2.34599523e-02, 2.70801093e-02,
          -3.33790085e-03, -1.37424618e-02, 1.43751930e-02,
          -2.57217772e-02, 1.33719929e-02, 2.38288008e-02,
          2.02957243e-02, 4.00411077e-02, -1.09952483e-02,
          -2.88145859e-02, -1.39473109e-02, 2.34478083e-03,
          7.66187347e-03, -4.82028350e-03, 8.17457307e-03,
          1.42478812e-02, 2.14955341e-02, 1.43284332e-02, 6.12182170e-03,
          1.21249305e-02, 3.15634301e-03, -3.36802863e-02,
          -1.04958471e-03, -2.61075236e-03, -1.34985393e-03,
          2.53012851e-02, 9.92535893e-03, 2.58366141e-04, 1.07180537e-03,
          3.52384942e-03, -3.39212897e-03, 6.71891496e-03,
          -6.27686549e-03, -5.38581610e-03, 4.57376428e-03,
          -9.11736162e-04, 1.15878247e-02, 3.38820815e-02,
          1.10261524e-02, -1.83131937e-02, -3.68707534e-03,
          -1.84130743e-02, -1.62025951e-02, -1.99795682e-02,
          2.82522906e-02, 7.33159529e-03, -2.84400838e-03,
          1.90516077e-02, -7.24649522e-03, 7.12248357e-03,
          5.07247960e-03, -1.20479176e-02, 2.76720733e-03,
          7.01336516e-03, 2.14384031e-02, 6.26976835e-04, 2.83158533e-02,
          -6.99763768e-04, 1.18959686e-02, -1.27694923e-02,
          9.90275666e-03, -2.31850985e-03, -1.69500951e-02,
          -1.48781603e-02, -4.46428126e-03, -2.84178532e-03,
          -2.71600764e-03, 3.75976530e-03, -2.19070949e-02,
          -1.28203351e-02, -1.61133185e-02, -8.44910741e-03,
          -2.74205231e-03, -2.46909373e-02, -1.64282676e-02,
          7.62876356e-03, 3.56163178e-03, -5.44810016e-03,
          -6.15302054e-03, 1.48215555e-02, -1.39710086e-04,
          1.54979257e-02, 9.62026534e-04, 4.95290756e-03, 2.13637017e-02,
          1.96529785e-03, -1.31088868e-03, 2.52781883e-02,
          -3.06795980e-03, -1.21299066e-02, -3.52203147e-03,
          -8.48589558e-03, -1.11046992e-02, -2.55677439e-02,
          -3.25692371e-02, -1.31818112e-02, 3.25683169e-02,
          -6.37421710e-03, -3.52250226e-02, -9.28508583e-03,
          -1.66132562e-02, -4.41645831e-03, 1.11019779e-02,
          -1.28698954e-03, 1.70892682e-02, 3.48828430e-03,
          -4.09133174e-03, -1.92553271e-02, 9.24408808e-03,
          1.14116985e-02, -4.38589777e-04, -3.33858244e-02,
          -4.18334529e-02, 5.86454850e-03, -6.12260075e-03,
          -2.02194173e-02, 2.59385008e-04, 2.33587809e-03,
          -1.61872301e-02, -6.44071214e-03, 4.24216734e-03,
          -1.37174781e-02, 2.00238675e-02, 3.87077071e-02,
          8.86533689e-03, 6.62309164e-03, 1.56811010e-02, 1.91075064e-03,
          -2.86459848e-02, 1.48929143e-02, -1.52006913e-02,
          1.05746528e-02, 1.75710265e-02, 1.34123247e-02,
          -1.77968983e-02, 9.01549030e-03, 9.83791705e-03,
          2.49094388e-04, -6.10322831e-03, -2.83736028e-02,
          1.71937384e-02, 2.45734397e-02, -7.20360782e-03,
          -1.60398968e-02, 4.78512887e-03, -1.43209314e-02,
          -2.71656290e-02, -1.80973615e-02, -5.36397658e-02,
          -2.07776111e-02, -1.30195031e-03, -1.03236642e-02,
          6.85151061e-03, 3.47538181e-02, 2.17979401e-02, 1.07845780e-03,
          -6.53118547e-03, -2.74025593e-02, 1.39394179e-02,
          2.95125432e-02, 2.02262495e-02, -1.90318488e-02,
